-0.997497 0.127171 -0.613392 0.617481 0.170019 -0.0402539 -0.299417 0.791925 0.64568 0.49321 -0.651784 0.717887 0.421003 0.0270699 -0.39201 -0.970031 -0.817194 -0.271096 -0.705374 -0.668203 0.97705 -0.108615 -0.761834 -0.990661 -0.982177 -0.24424 0.0633259 0.142369 0.203528 0.214331 -0.667531 0.32609 -0.0984222 -0.295755 -0.885922 0.215369 0.566637 0.605213 0.0397656 -0.3961 0.751946 0.453352 0.911802 0.851436 0.0787072 -0.715323 -0.0758385 -0.529344 0.724479 -0.580798 0.559313 0.687307 0.993591 0.99939 0.222999 -0.215125 -0.467574 -0.405438 0.680288 -0.952513 -0.248268 -0.814753 0.354411 -0.88757 -0.982421 0.83758 -0.448225 -0.454207 0.175817 0.382366 0.675222 0.452986 -0.0301218 -0.589282 0.487472 -0.0630818 -0.0840785 0.898312 0.488876 -0.783441 0.198096 -0.22953 0.470016 0.217933 0.14481 -0.277322 -0.69689 -0.549791 -0.149693 0.605762 0.0342112 0.97998 0.503098 -0.308878 -0.662038 0.314615 -0.0162053 -0.872921 0.399518 0.00961333 -0.705008 0.899167 -0.716849 0.810236 0.385784 -0.393902 -0.146886 -0.859249 0.933226 0.366375 -0.693533 0.754509 0.643361 0.164098 -0.617298 -0.644215 0.634388 -0.0494705 -0.688894 0.00784326 0.464034 -0.188818 -0.44084 0.137486 0.364483 0.511704 0.443831 -0.0494095 -0.75396 -0.264382 0.669362 -0.929807 0.0340281 0.325968 -0.147557 -0.790643 0.898679 0.842769 0.0990936 -0.308023 -0.0565508 -0.250038 0.69396 -0.366253 -0.0878018 -0.456221 0.965941 -0.404401 0.478378 0.134556 -0.60802 0.522629 0.678884 -0.204688 0.00180059 0.780328 -0.945067 0.989257 0.145177 -0.898984 0.0626545 -0.611866 0.686087 0.253517 0.315226 -0.604297 0.684317 -0.753349 -0.780145 0.486251 -0.371868 0.882138 -0.427839 -0.327372 -0.719474 0.46617 0.66924 0.415998 0.200476 0.49443 -0.494552 -0.711051 -0.996765 -0.877987 0.612476 0.705252 -0.578845 -0.768792 0.106418 -0.971496 -0.772454 -0.0909757 0.50444 0.372295 0.0868862 -0.852229 -0.12656 -0.596118 0.392438 -0.419294 -0.126621 -0.535142 0.155736 0.065157 0.257363 -0.679617 0.00827052 0.926084 0.391522 0.849605 -0.620106 -0.328104 -0.6433 0.990356 -0.0851161 0.996033 -0.804987 0.250343 -0.811213 -0.124546 0.863033 -0.903134 0.789239 -0.419965 -0.545396 0.538133 -0.178564 -0.596057 0.256142 0.208289 -0.0967742 -0.0672933 0.195654 0.269448 0.709586 0.657582 0.24955 0.441816 0.131504 -0.249733 -0.631458 0.475814 0.110263 0.810175 -0.514267 -0.62212 0.209449 0.397015 0.169225 -0.297403 -0.0110782 -0.839228 0.481491 0.224097 0.240761 0.382244 0.609058 -0.701773 0.152074 0.735466 0.823115 0.229408 0.455367 -0.913572 0.335551 0.953063 -0.369976 0.138401 -0.388348 -0.65215 -0.782891 0.73809 0.702445 0.488632 -0.690237 -0.346171 -0.841304 -0.846797 0.281961 0.640004 0.0901822 -0.103488 -0.182043 -0.402509 -0.0688803 0.00241096 -0.694693 -0.353923 0.475997 -0.372234 0.653371 0.918149 0.746696 0.450056 -0.399884 0.887997 -0.745537 -0.868526 0.569933 0.0491653 0.219275 0.912229 -0.855464 0.751274 0.307718 -0.355754 -0.790399 0.0101016 -0.545824 -0.419416 0.839961 0.102329 0.325602 -0.770928 -0.0149236 -0.241737 -0.00637837 0.586718 0.0185247 -0.235267 0.376324 0.0643025 0.212561 -0.209632 -0.98822 0.415754 -0.798761 0.246132 0.726493 -0.0169988 0.494675 -0.00619526 -0.239784 0.570727 0.105625 -0.285806 0.911435 0.261696 -0.64684 -0.251503 -0.736747 0.486557 0.903439 0.223975 -0.944334 -0.340312 -0.88818 0.27842 -0.736747 0.694143 0.728629 0.193762 0.443281 0.707938 -0.970641 -0.747063 0.415815 0.234291 -0.564867 -0.868099 -0.66216 0.248207 -0.318033 -0.361187 -0.26487 0.322001 0.604785 0.613758 0.0530717 0.222205 0.596362 0.801202 -0.710379 0.260353 -0.195166 -0.492599 -0.72692 0.710379 -0.867672 -0.144383 0.146702 -0.395428 0.0961028 -0.548875 -0.3773 -0.778741 0.616077 -0.730583 -0.431501 0.57622 0.79046 0.579272 0.487594 0.230445 -0.277749 0.713309 -0.543016 0.727165 -0.541124 -0.5009 0.0848109 0.969665 -0.892392 -0.837153 0.0493484 -0.146397 -0.810663 -0.482406 0.783074 -0.534471 -0.7069 -0.749809 0.863277 -0.839778 -0.90582 -0.882565 -0.327189 0.829402 -0.202795 -0.134434 0.892331 0.674368 0.068453 0.684194 0.387066 -0.204627 -0.481674 -0.991333 0.0511795 0.909604 -0.202612 -0.517808 0.171117 -0.489731 0.368023 0.890561 -0.129002 0.78045 -0.985656 0.881954 0.203101 0.572314 0.153356 -0.71514 -0.555345 -0.233985 -0.991455 -0.164159 -0.835505 0.319864 0.710196 -0.870296 0.62212 0.324137 0.382977 0.605396 0.0602741 0.371258 -0.714469 0.379009 0.455794 0.555467 -0.937864 0.737358 0.289041 0.413129 -0.829096 0.103977 0.89581 -0.882443 -0.450056 -0.709647 0.963561 0.239967 -0.41551 0.844966 -0.264931 0.38908 -0.562731 -0.688162 -0.518906 0.0428785 0.804559 -0.787164 0.805292 -0.11655 -0.839778 0.564196 -0.656423 0.94879 0.551744 0.740776 -0.578722 -0.0867641 -0.992492 0.501267 -0.771905 -0.190588 -0.377728 0.985229 -0.922849 -0.495834 -0.621448 -0.504624 -0.692984 0.240638 0.770745 0.87817 -0.608692 0.559313 0.291116 0.313517 0.818293 -0.0890835 0.842586 0.328349 -0.698477 0.272683 0.139073 -0.155919 0.886044 0.0811487 0.15714 0.0729087 -0.489425 -0.206091 -0.299478 -0.926756 0.590503 -0.606983 -0.859432 -0.221168 0.181494 -0.85815 -0.604663 -0.688223 0.288675 -0.0913419 0.208594 0.394696 -0.117405 0.368938 -0.206946 0.671438 0.184423 -0.600818 0.898923 0.752007 -0.21659 0.974914 -0.629383 0.791437 0.1489 -0.115879 0.254677 0.417035 -0.900754 -0.428877 -0.479598 -0.184729 0.790643 0.420392 0.456893 0.792108 -0.212867 -0.205176 0.807733 -0.382794 -0.223792 0.141148 -0.292886 0.467391 0.490707 0.472762 0.478866 -0.721366 -0.599658 -0.454817 0.360881 0.82226 -0.264321 0.0353099 -0.781243 0.814875 -0.59386 0.0359203 0.309671 -0.122959 0.375286 -0.819147 -0.840876 -0.848445 -0.944395 -0.289834 -0.38554 0.394574 -0.714652 -0.210303 -0.864315 0.351482 0.449873 -0.602588 0.388043 0.231422 0.309793 0.0879849 -0.8034 0.0907315 -0.900754 0.949156 -0.0719321 0.93994 0.455733 0.0619221 0.359844 0.385601 -0.255776 -0.222755 -0.900082 0.619556 -0.660878 -0.878353 -0.378887 0.568957 -0.57506 -0.356182 -0.0306711 -0.981689 -0.120273 0.015717 0.21189 0.517075 -0.197851 -0.300394 0.685293 0.88464 0.24662 0.994568 -0.893063 0.125706 0.727103 -0.226478 -0.387188 -0.431562 -0.946593 0.225135 -0.217627 -0.962767 -0.937925 -0.0885952 0.715873 0.873531 -0.196203 0.454573 0.223182 0.616749 0.750847 0.165197 0.190039 -0.841975 0.586352 -0.0755943 0.181249 0.178869 0.138401 0.63213 0.3455 -0.312845 -0.979553 -0.465377 -0.316874 -0.535813 0.542039 -0.256508 0.739738 -0.766289 0.451155 0.257851 0.787896 -0.633961 0.0711386 0.80401 0.560167 0.930418 -0.605274 0.803095 0.594836 0.906796 0.697623 0.780694 0.257424 -0.629078 0.233863 -0.470016 -0.498703 0.4644 0.57622 -0.658132 0.427778 -0.0381176 -0.837031 0.613086 0.710685 -0.750725 -0.385052 0.146641 -0.0540483 0.524094 -0.61626 0.45555 0.990051 -0.969298 0.295267 0.383282 -0.651723 -0.85577 -0.450056 0.353252 0.677847 0.113315 -0.257546 0.559008 -0.534959 0.276467 -0.536668 -0.590808 0.942076 -0.436506 -0.954222 0.538438 -0.696341 -0.906064 -0.981506 -0.302835 0.287759 -0.313517 -0.170873 -0.166967 -0.818659 0.0903653 0.398541 -0.324015 0.315043 0.752495 0.0709555 0.140049 -0.892026 -0.068453 -0.480026 -0.146397 0.726676 -0.0268258 -0.825129 0.131626 0.418806 0.556932 0.728446 0.701102 -0.413984 0.728751 0.289834 0.493698 0.657277 0.531236 0.743828 0.816645 0.825068 0.0439161 -0.119663 -0.784722 -0.291971 0.646107 -0.144566 -0.660329 -0.998291 0.31492 0.547105 -0.872555 -0.820368 -0.228675 0.367779 0.615223 -0.691824 -0.714286 -0.903073 -0.307718 -0.962889 0.956847 0.295267 -0.892697 0.828303 0.274941 -0.13657 -0.957884 -0.514817 -0.216102 0.308023 0.563768 -0.954344 0.652089 -0.723136 0.268532 0.100803 0.966979 -0.0731529 -0.570421 -0.398602 0.564318 -0.31492 -0.038789 0.216041 -0.794977 0.968871 0.511643 -0.698233 -0.0871914 0.423261 0.997497 0.551012 0.283303 0.242409 0.892209 0.376324 -0.420392 0.134312 -0.419233 0.096469 0.424726 -0.507126 0.0933561 -0.0147404 0.904111 0.33964 0.53032 0.246742 -0.108493 0.597522 0.491073 0.977844 -0.590747 0.25895 0.819636 0.182592 0.836787 0.0110782 -0.0212104 -0.100558 0.77868 0.880795 -0.634144 -0.496078 -0.593982 0.460982 0.88226 0.25016 -0.917295 0.282693 -0.930967 0.112705 0.0889615 -0.107334 -0.877255 0.992065 -0.744499 0.201819 -0.899289 -0.654408 0.320475 -0.335124 -0.368084 0.307169 -0.17893 -0.144993 -0.556749 0.357036 -0.667104 -0.00491348 0.0152898 0.605457 -0.129856 -0.990967 -0.321024 -0.248207 -0.742851 0.654653 0.466597 0.782281 0.28666 0.301187 0.0289621 0.46794 0.474349 0.914182 -0.0683309 -0.273476 -0.775628 0.80932 0.642445 -0.0904263 -0.782647 0.738884 0.522752 -0.921751 -0.166662 0.87225 -0.864498 -0.670278 -0.577441 -0.766167 0.182226 -0.763298 0.236549 0.160192 0.380596 0.463118 0.831294 0.339457 -0.402997 0.617725 -0.243629 0.994995 0.54503 -0.591174 -0.658864 -0.223487 -0.637562 0.161962 -0.608753 0.920286 -0.619495 -0.236549 -0.39201 -0.758354 -0.603687 -0.907529 0.542344 0.52208 0.762078 -0.99646 -0.102756 -0.147252 0.603076 -0.0773034 -0.0102847 0.498764 -0.522996 0.118809 -0.814508 0.84405 0.787652 0.714042 -0.880734 -0.0182196 0.264077 0.49443 0.512131 -0.48851 0.819819 0.583972 -0.600757 0.105686 -0.897519 0.0443434 0.580737 0.408307 -0.951903 0.463485 0.106723 0.828425 0.751091 0.59386 -0.389142 -0.21012 -0.0362255 -0.894833 0.303934 -0.998291 0.537156 0.512375 -0.560533 -0.690481 -0.884945 0.341227 -0.934629 -0.308267 0.395734 0.596301 -0.127476 0.963439 0.271096 -0.409406 -0.0460524 0.748711 -0.841426 -0.798029 -0.713553 -0.713981 0.835994 -0.38255 -0.252358 0.627674 -0.906735 0.628407 -0.520005 0.79577 -0.486984 -0.461287 -0.583972 -0.541246 0.692312 0.749687 0.775384 0.689566 0.218543 -0.91821 -0.652944 -0.632496 -0.288186 -0.101474 -0.629872 0.788934 0.246071 0.0926847 0.823359 0.0451979 0.461287 0.998657 0.938658 0.734855 0.68041 -0.706656 -0.251198 -0.431257 -0.658071 0.947508 0.483627 0.43321 -0.938231 0.290078 0.625416 0.471847 0.636341 -0.750725 0.437788 -0.249855 0.299661 0.830866 0.779351 -0.935667 0.546983 -0.102268 -0.984863 -0.542772 -0.16306 -0.686819 0.838069 0.00338755 -0.514267 0.508957 0.813044 -0.573046 -0.935789 0.542344 -0.543504 0.113193 0.612781 0.704031 -0.336772 0.0778527 0.983581 0.738701 0.293741 -0.544542 0.625599 -0.257912 -0.266213 -0.930052 0.122593 -0.20426 -0.76043 -0.350139 0.798029 -0.597034 0.880367 -0.74987 0.69866 0.787896 -0.10886 -0.555773 0.269509 0.120151 0.248085 -0.152684 -0.96704 0.728263 -0.720756 -0.465194 -0.416059 0.363323 0.122898 0.917661 0.214454 0.576464 -0.154576 0.636769 0.478927 -0.728446 0.0330515 -0.959838 -0.986023 0.496628 -0.332255 0.804254 -0.0754723 0.535813 -0.898984 0.26194 -0.951659 0.364849 0.938169 0.000885037 0.412763 -0.468123 0.644704 0.293252 0.194433 -0.472762 0.688467 -0.0798669 0.496323 -0.296793 -0.971007 -0.0469069 0.252968 -0.192236 -0.232765 -0.944761 -0.422346 0.193701 0.767754 -0.135655 0.863094 -0.234046 0.0662557 -0.979858 0.948485 0.730399 -0.125156 0.399274 -0.334086 0.204688 -0.00289926 0.119236 -0.921995 -0.243568 -0.533921 0.874691 0.719047 0.92822 0.217627 0.167943 -0.847102 -0.185949 -0.389386 -0.00283822 -0.8399 0.749565 -0.391461 0.563036 0.86578 0.176855 -0.567553 -0.441389 0.121433 0.748833 -0.499863 -0.397198 0.454268 0.733207 -0.537828 -0.61858 -0.106418 0.780694 0.148656 -0.942442 0.990478 -0.881527 0.23838 -0.486129 -0.660329 -0.767754 -0.537034 -0.0102237 0.919614 -0.901425 -0.840754 -0.324686 -0.440535 0.0310984 -0.018891 -0.175451 0.849422 0.202124 -0.415693 -0.0484939 -0.196692 0.902646 0.0967132 0.669851 0.588855 0.60332 0.185705 0.740165 -0.363872 0.878353 -0.464156 0.886654 0.437544 -0.744743 0.549791 -0.0542314 -0.648183 -0.946654 -0.916746 -0.0904263 0.724601 -0.727775 -0.971068 -0.57445 0.637074 0.594409 0.559313 0.316996 -0.402509 0.562853 0.843013 0.684256 -0.514756 -0.002472 -0.953978 -0.848567 -0.938231 -0.287576 0.430647 -0.180395 -0.639149 -0.404157 -0.635792 0.489792 -0.730522 -0.883541 0.0512406 -0.282266 0.613453 -0.682363 0.799738 -0.736381 -0.941527 -0.637135 0.636158 -0.501572 0.141392 -0.306192 0.0798669 0.329814 0.741508 0.865047 0.890561 -0.789605 -0.693533 0.11594 0.600513 0.790277 -0.854976 0.744621 0.644826 -0.223426 0.0975677 0.343913 -0.098117 -0.437239 0.898923 0.964293 0.456099 0.189611 -0.455245 -0.736076 -0.604114 0.201025 -0.0252998 -0.289346 -0.540147 -0.0431227 0.383587 0.896298 0.342265 0.965148 -0.524949 0.027131 -0.528367 0.796075 -0.0312815 -0.347087 0.074984 0.141575 -0.326945 -0.30369 -0.66155 -0.41966 -0.561449 0.845637 0.479354 0.614002 0.300882 0.373394 -0.459822 0.533738 -0.871151 0.443525 0.718131 -0.316874 -0.911252 -0.0314035 -0.958434 0.676382 0.237037 0.0811487 0.208106 0.137364 0.554735 0.280068 0.393475 0.519883 0.736015 -0.684011 -0.152989 0.572924 -0.957152 -0.123264 -0.915708 0.0126041 -0.46147 -0.86346 -0.5103 0.96411 0.0129093 0.231056 -0.857967 -0.264992 0.911069 0.720145 -0.325053 -0.516221 -0.420942 -0.898068 0.985412 -0.65508 -0.862178 -0.55974 -0.398175 0.573717 0.299234 -0.832636 -0.474471 -0.727042 -0.564928 0.125156 -0.643483 0.264565 -0.786187 -0.0925626 0.517685 -0.332377 -0.885189 -0.43498 0.388592 0.746513 0.135166 0.736991 -0.83758 0.590808 0.999329 0.269997 0.237709 0.18955 0.186254 -0.611499 0.957762 -0.536973 -0.915403 -0.521897 -0.489731 -0.186377 0.589892 -0.455061 0.800104 -0.241127 0.455123 -0.587024 -0.894101 0.209143 -0.292032 -0.277505 0.336222 0.952086 -0.552721 0.791559 -0.30607 0.907041 0.330241 -0.596667 -0.435286 -0.289102 0.0639973 -0.418012 -0.560045 -0.800775 -0.786554 0.418683 0.687613 0.34373 0.638295 -0.988464 -0.017304 0.209265 0.870663 -0.418744 0.211646 0.49382 0.747673 0.824458 0.660207 0.211829 -0.39024 0.568468 -0.699759 0.0852382 0.378094 -0.21073 0.986389 -0.796136 -0.176794 -0.945128 0.374859 -0.482223 -0.661977 -0.542711 -0.621998 0.724418 0.526597 -0.904782 -0.0335398 -0.887692 0.922483 -0.830012 0.130955 0.925108 0.147801 0.757317 -0.182592 -0.193701 -0.173009 0.317057 0.646718 0.890378 -0.43376 -0.995544 0.232521 -0.90112 0.312113 -0.156102 0.908994 0.207923 -0.598254 -0.171239 -0.318888 0.246254 0.61681 -0.990295 -0.789483 -0.211158 -0.446272 -0.366436 0.648488 0.707022 -0.376934 -0.604663 0.129368 -0.061861 0.990234 -0.133518 -0.263039 -0.16245 -0.230262 0.160863 0.755486 -0.325175 -0.213233 0.902097 0.0182806 -0.162816 0.21659 0.553514 -0.832698 -0.697623 -0.584155 -0.825312 -0.365459 -0.0563677 0.258278 -0.334452 -0.841365 0.229041 -0.714347 -0.438581 0.649953 -0.12186 0.98883 -0.558092 -0.785333 0.0379955 -0.470809 -0.98529 0.152501 0.541124 -0.784967 0.938414 -0.261147 0.807978 0.0434278 -0.554674 -0.394757 -0.0430616 -0.378765 -0.171178 0.529466 0.683218 -0.221778 -0.145054 0.448347 0.469832 -0.817194 -0.836543 0.506149 0.69396 0.275613 -0.28074 -0.0499588 -0.811213 -0.169408 -0.62328 -0.313761 0.826777 -0.541368 -0.379376 -0.691458 -0.316935 -0.635426 -0.455428 -0.588122 -0.65508 -0.329447 -0.869137 0.00381481 0.927366 0.618519 -0.107089 0.825983 -0.641469 -0.0361644 -0.0558184 0.39848 -0.502792 0.873409 -0.445112 -0.400922 0.644887 0.639271 0.259804 0.590136 -0.985595 -0.478072 -0.420942 0.905942 0.718925 0.0348827 0.415021 -0.487655 0.842097 -0.0174871 -0.812922 0.651967 -0.846614 -0.434736 -0.232276 0.286538 0.0301828 -0.136937 -0.718558 0.94995 -0.850764 -0.989624 0.829585 -0.176672 0.510666 -0.624683 -0.796564 -0.153722 0.355876 0.0548418 0.648427 0.674368 -0.457015 -0.00100711 0.740898 -0.702017 0.941588 0.0767541 -0.558641 -0.866512 -0.590747 -0.604541 -0.614185 -0.60094 0.913572 0.186987 0.477584 -0.411237 0.359661 0.572253 0.842647 0.856868 0.68865 -0.48204 -0.789117 -0.876217 0.80755 -0.70336 0.785516 -0.281167 0.913388 -0.236854 -0.337077 0.369121 0.775079 -0.239784 -0.133457 0.349284 -0.465804 -0.0343333 0.0556963 0.604114 0.588244 0.49266 -0.0266427 0.655568 0.118076 -0.442427 -0.305643 -0.89172 0.822504 0.525803 -0.263039 -0.435224 -0.577502 -0.350871 -0.899716 0.763237 -0.502365 -0.192358 -0.710257 0.750542 0.216224 0.567309 -0.606311 -0.0965911 0.523545 -0.133335 0.272927 0.609119 -0.651112 -0.354656 0.926389 0.418806 -0.604907 0.725761 -0.905393 0.486435 -0.927915 -0.738334 -0.835261 0.10538 0.137913 0.0660115 -0.562243 -0.845637 -0.39079 -0.87109 -0.177465 -0.732597 -0.496628 0.641285 0.0175481 -0.462569 0.97589 0.833064 -0.756523 -0.431135 0.413923 -0.0581378 -0.410504 -0.310709 0.0502029 0.622242 0.0344554 -0.865352 0.658437 0.108798 -0.792718 0.0191351 0.893368 0.446211 -0.0521561 -0.0973846 0.837764 0.0976897 -0.269448 0.768731 0.319437 -0.754936 0.0148015 -0.77514 -0.440413 0.0929289 0.582568 -0.261635 0.716239 0.488693 -0.0722983 -0.280679 -0.115818 0.17185 -0.24192 0.264077 0.115207 -0.0348216 0.67333 -0.62859 -0.98059 -0.781487 -0.91876 -0.556444 -0.488083 -0.179418 0.415204 -0.114536 -0.733879 0.0881069 0.713553 0.613269 -0.563463 0.847652 -0.373272 -0.713553 0.213721 -0.979431 0.91113 0.0744957 -0.226234 -0.975219 -0.525864 0.771416 0.184912 -0.694815 -0.966918 0.0704062 0.83343 0.30546 -0.551073 -0.188879 0.931639 -0.805841 -0.200842 0.0122379 -0.329386 -0.343181 0.250832 -0.498459 -0.420087 0.0670492 0.797357 -0.0438551 -0.343669 0.349162 -0.0793176 0.165502 -0.174474 0.8446 -0.758049 0.329447 -0.702628 -0.505234 -0.776849 -0.795953 0.379009 0.652882 -0.0185247 -0.0925016 0.306864 -0.162999 0.279824 -0.801569 0.661184 -0.262734 0.755913 0.0400708 0.924558 -0.210608 0.451399 0.261208 -0.251747 0.62682 0.70513 -0.872127 0.487167 -0.275246 -0.528794 0.637928 0.567431 -0.452132 0.126438 -0.650563 -0.751518 0.514206 -0.172399 -0.441145 -0.658071 0.0884121 -0.517502 -0.362774 -0.549852 0.31608 0.396832 0.340495 0.28666 -0.887936 -0.340983 0.904477 -0.358623 -0.384747 -0.674062 -0.262917 -0.447127 0.922239 -0.527573 -0.478378 0.249672 0.51207 0.165624 -0.457991 0.424299 -0.324198 0.428266 -0.956847 0.401105 0.261391 -0.747246 0.439741 -0.238197 0.0478835 0.728263 0.183874 -0.00967437 -0.938414 0.343547 0.106967 -0.300821 0.145177 0.52855 -0.954711 -0.998718 0.0939055 0.496139 -0.43553 0.588061 0.670461 0.447615 -0.407086 0.0773034 -0.188818 -0.796442 -0.221229 -0.806574 0.336406 -0.676321 0.381878 0.341533 0.477035 0.776482 0.513169 0.139012 -0.470138 -0.777093 -0.465743 0.466903 0.954955 -0.0242012 -0.570177 0.602405 0.225806 -0.302957 -0.0347606 0.997009 -0.252663 0.895993 -0.558763 0.260537 0.151402 -0.708914 0.859798 -0.0841395 0.284646 -0.902707 0.311502 0.484787 -0.800043 0.301492 -0.600818 -0.531297 0.464278 0.989074 0.508225 0.786615 0.0953093 0.783563 0.737724 0.23191 0.439802 0.462142 -0.696158 0.512436 -0.694449 -0.190527 0.22898 0.433576 0.659963 0.772088 -0.872555 -0.210486 0.207251 -0.023835 -0.0972625 0.523606 0.157567 -0.328532 0.166112 -0.279336 0.499496 -0.837092 -0.80871 0.99414 -0.911069 -0.206641 -0.783624 -0.17008 -0.132176 -0.460555 -0.0939665 -0.550035 -0.47734 0.283486 0.786187 0.757927 -0.101352 -0.176611 -0.535875 0.928831 0.478744 -0.316568 0.446089 0.206763 0.242897 0.788446 0.364971 -0.528733 -0.782403 0.0633259 0.431013 0.135899 -0.969787 0.0218207 -0.0831019 0.94171 0.77929 0.404767 -0.508347 -0.792901 -0.466659 -0.0674154 0.213538 -0.901852 -0.227638 -0.766717 0.996338 0.479843 -0.918332 -0.991211 0.360515 0.912839 0.413251 0.501755 -0.717826 0.356548 0.225501 0.325968 0.952025 -0.857784 0.814814 0.722648 0.256996 0.778008 0.150304 -0.695608 0.797235 0.147801 -0.474105 -0.649037 0.250587 0.66863 0.340556 0.717277 -0.102939 0.965941 0.320231 0.417524 -0.883541 0.631947 0.49382 0.948302 0.670705 -0.371746 -0.764702 -0.588977 -0.416425 0.895566 0.684988 -0.500473 -0.568163 0.732353 -0.138218 -0.588549 0.857479 0.506638 -0.220008 -0.250526 0.11594 0.261452 0.882138 0.472518 0.472091 -0.222571 0.100375 0.960448 0.255959 -0.344646 -0.139927 0.254677 0.391339 -0.0197455 0.336772 -0.463301 -0.790521 -0.869625 -0.72045 -0.0920743 -0.639454 0.293008 0.713553 -0.467818 0.635182 0.249794 0.833613 -0.795465 -0.491623 -0.00570696 0.402264 0.408246 -0.780816 -0.25602 -0.0364086 0.922056 -0.802301 -0.0909757 -0.813654 0.0414747 -0.348064 0.581042 0.648305 0.475631 0.127903 -0.896542 -0.625294 0.98175 -0.145604 0.286843 0.442854 0.801508 0.685904 0.830683 -0.0340281 -0.040376 0.455 0.515427 -0.232093 0.489242 -0.45201 -0.274209 -0.937559 0.64452 0.515793 -0.13065 -0.551439 -0.835078 -0.468551 0.251381 0.534532 -0.347697 -0.490585 -0.0300607 0.503769 0.123875 -0.304178 0.392621 0.934263 -0.196631 -0.454634 0.777764 0.184729 0.213233 -0.305277 0.602832 0.659536 0.629994 -0.153172 -0.837458 0.264809 0.965087 0.377361 -0.00143437 -0.631458 0.134556 -0.52324 0.723991 -0.422163 0.979125 0.639882 -0.194983 -0.356548 -0.202673 0.315165 0.861751 0.807733 -0.444624 0.527329 0.0514237 0.904538 0.83404 0.28489 -0.904172 -0.472884 -0.422712 0.584948 -0.483871 -0.425947 -0.296182 0.828791 0.636952 -0.51323 -0.355693 -0.54033 0.922361 -0.509018 0.867183 0.635975 -0.793207 0.154515 -0.545274 -0.248085 -0.617176 0.574206 0.793451 -0.381512 -0.891659 0.504074 0.438581 0.116977 0.0958586 -0.262795 -0.781182 -0.862239 0.546251 -0.945494 -0.359722 -0.383343 -0.710074 0.0518509 -0.345561 0.481429 0.196997 0.159093 0.851741 0.320902 0.419599 0.162572 -0.856441 -0.410504 -0.970763 0.544359 0.994873 0.159093 -0.389508 -0.0497757 -0.730094 0.0312204 -0.625538 0.0991546 -0.245521 0.0218818 0.354656 0.446516 0.415326 0.231605 -0.753288 0.913938 0.461287 -0.887265 -0.544115 -0.00234993 -0.732658 0.947874 -0.086642 0.569262 0.224464 0.549425 0.225196 0.678762 -0.422468 0.996094 0.715262 -0.324381 -0.685415 -0.7846 0.92584 0.957701 0.168798 -0.772332 -0.863033 -0.338115 -0.203528 -0.138279 0.468856 0.609119 0.193396 0.756218 0.127354 0.814692 -0.588183 -0.541551 -0.641774 -0.121189 -0.359233 -0.566454 0.669485 0.56737 0.712271 -0.203894 -0.11362 0.897519 -0.904599 0.57683 -0.398785 0.0389721 -0.558092 0.337382 -0.420637 -0.65508 0.744438 -0.0553301 0.685598 0.823542 0.170568 -0.681387 -0.107944 0.364055 0.63567 0.96411 0.930906 0.028901 -0.82403 -0.898556 0.153722 0.725028 0.185339 0.206702 0.161046 -0.434004 0.577258 -0.225684 0.763237 -0.760918 0.935911 -0.884518 -0.163915 -0.312296 -0.282876 -0.996033 -0.365886 -0.576891 0.563707 -0.0184637 -0.877743 0.778008 -0.20481 0.137181 -0.109531 0.413129 0.13712 0.170202 0.212439 -0.608936 -0.24955 0.552049 0.81164 0.128574 0.624195 0.597766 0.896481 0.54033 -0.605762 0.259987 0.0278634 0.686636 0.650258 0.458357 0.381268 0.237465 -0.206946 0.756767 0.965575 0.0657674 -0.494003 0.20011 0.361553 0.281594 0.901364 0.124485 -0.457381 0.0203558 -0.594714 0.751946 -0.660268 -0.701956 0.444197 0.383038 0.11362 0.244301 0.99292 0.999878 0.196387 0.0278634 0.0503861 -0.908628 0.665273 0.785333 0.102206 -0.486007 -0.989319 0.866573 0.634999 -0.800348 -0.738334 0.708975 -0.236793 0.524644 -0.869503 -0.346904 -0.96765 -0.849788 -0.260353 -0.987487 -0.539781 0.149205 0.492904 -0.290628 -0.121189 -0.770501 0.653981 -0.210486 -0.360271 0.868587 0.194311 0.128758 0.745415 0.16953 -0.527207 -0.356792 -0.531846 0.253578 0.310831 0.315653 0.520859 -0.000762963 0.0229804 -0.648915 -0.160253 -0.0580157 0.968749 0.774041 -0.955687 -0.85345 -0.814814 -0.221229 -0.365642 0.864559 0.664663 0.147008 -0.0116276 -0.210608 0.839473 0.0439161 -0.774773 0.721915 -0.164159 0.505661 0.991455 -0.542344 -0.939634 -0.0693075 -0.763237 -0.289102 -0.319498 0.887936 -0.959166 0.884518 0.562426 0.553331 0.552538 0.50145 0.228248 -0.911924 -0.894345 0.108066 0.395367 -0.729362 -0.427168 0.462874 -0.339824 -0.304605 0.0195624 0.822932 0.889279 0.84991 0.722648 0.140416 0.879452 0.383526 -0.3867 0.981811 -0.149754 0.880612 0.209387 -0.0179144 -0.668752 0.449202 -0.902097 -0.353069 0.00552385 -0.560839 -0.969115 -0.685171 0.0735801 -0.398297 0.697378 0.0918912 -0.301309 -0.997559 -0.766961 -0.428449 0.0971404 -0.998413 0.531358 -0.847224 0.835139 0.61211 -0.582507 -0.232765 -0.104221 0.550035 0.748161 0.830256 0.0773644 0.28843 -0.50029 0.225806 0.286966 0.427656 0.907407 0.140538 -0.709769 -0.305338 0.716849 0.556566 0.481796 0.883724 0.612842 -0.782403 -0.763665 -0.949217 0.885128 -0.119358 -0.594348 0.275002 -0.604602 -0.335734 0.521348 0.297952 0.908017 -0.692068 0.268227 -0.644704 -0.154332 -0.846187 -0.210974 0.51207 0.534104 0.66332 0.384014 -0.18601 -0.00302133 0.281838 -0.832942 -0.431745 -0.635365 -0.536729 0.24247 -0.934629 0.958068 -0.33256 0.962035 0.0548418 -0.888607 0.142491 -0.171545 -0.712394 -0.20426 -0.694937 -0.395428 -0.562853 -0.895199 -0.469466 0.192602 0.711905 -0.331889 0.16599 0.84521 0.471908 -0.94879 0.578295 0.27134 -0.838557 -0.79284 0.0497757 0.199072 -0.12888 -0.9588 0.334391 0.957579 -0.159337 -0.848628 -0.314066 0.641713 -0.783807 0.807184 0.172094 0.420759 -0.626148 0.228919 -0.914487 -0.445906 0.121982 0.231056 0.265664 0.677175 0.0949431 0.290201 0.142674 0.918149 -0.349162 -0.897641 0.316874 -0.589587 0.585803 0.690725 -0.514084 0.76165 -0.0232856 0.126011 0.531724 -0.958251 0.465865 -0.0760826 -0.419721 -0.145909 0.299112 -0.820307 0.846919 -0.949889 -0.569201 0.504135 0.0784021 -0.348308 -0.992737 0.822382 0.406354 -0.45732 0.542039 -0.900937 -0.577929 -0.507309 0.0943327 -0.948668 -0.71221 0.0751671 -0.23484 -0.0870693 0.694327 -0.957274 -0.17893 -0.689138 0.479598 -0.277993 -0.240211 -0.68096 -0.279885 -0.0097354 -0.369854 -0.250832 0.106784 0.396832 -0.0821253 -0.257179 -0.581164 0.991577 -0.689688 -0.27311 -0.0918912 -0.577441 0.653188 0.794488 0.405316 -0.133702 0.41026 -0.42552 -0.0377514 -0.648 -0.0596026 -0.348308 -0.158666 -0.95703 -0.0972625 -0.399762 -0.335246 -0.962096 0.103854 0.692801 0.537523 0.253822 0.0985443 0.348064 0.954283 -0.0465407 0.85699 0.379254 0.304727 0.480392 0.810907 0.105258 -0.210974 -0.237465 0.591113 -0.611438 -0.444441 -0.851192 -0.230934 -0.33964 -0.126072 -0.860225 -0.0854213 -0.00271615 -0.843989 0.575243 -0.717277 0.310953 0.636647 -0.158483 -0.558153 0.713553 0.527146 -0.339152 -0.844111 -0.878658 -0.545824 0.0252998 -0.167333 0.159825 -0.00381481 0.837458 -0.148778 -0.569323 0.129734 0.820917 0.0808435 0.206153 -0.601245 0.262612 -0.096408 0.610462 -0.380963 0.15006 0.0534989 0.352641 0.929991 -0.734916 -0.415387 -0.927549 -0.993103 -0.202673 -0.719779 -0.637806 0.246071 -0.95996 0.816523 0.526658 0.734123 -0.270058 -0.00808741 0.143712 -0.183935 0.594531 -0.663869 -0.511277 0.0732749 -0.331584 0.410016 -0.115635 0.523362 -0.0575274 -0.890744 0.0384228 0.856258 -0.0932951 0.28544 -0.567064 -0.482894 0.550462 0.994446 -0.173376 -0.549974 -0.617542 0.687735 -0.0676595 0.314005 -0.967528 -0.343181 -0.666189 0.983886 0.997681 0.0441603 0.702445 -0.850398 0.0957976 0.732963 0.377606 -0.174841 0.188513 0.428694 0.372967 -0.419843 0.735893 0.244118 -0.12949 0.306742 0.746086 0.100986 -0.733879 -0.666066 -0.318155 0.260659 0.827876 -0.29722 -0.113559 0.295755 -0.970153 -0.587024 0.0917692 0.816218 0.625538 -0.544053 0.571032 0.261391 -0.479843 -0.555467 -0.501938 0.0713828 0.50792 0.653554 -0.923154 0.549486 0.93408 -0.71746 -0.997436 0.728385 0.345561 -0.245827 -0.182836 0.553514 -0.807489 0.859554 -0.277749 0.694388 0.643056 0.56444 -0.588733 0.298074 0.57329 0.287759 0.484054 -0.00387585 -0.203284 0.465316 0.00521867 0.478072 -0.406598 0.211097 0.770501 -0.0561846 0.602832 0.888913 -0.158116 0.74749 0.14243 0.406476 0.915098 0.545091 0.0148015 0.0447707 -0.918577 0.258583 -0.135044 0.635304 -0.452864 0.169103 0.151524 -0.103183 0.871639 0.451155 -0.206519 -0.254616 0.287881 -0.539109 0.554979 -0.610645 -0.332072 0.0911588 -0.768731 -0.977966 -0.305094 -0.495102 -0.302103 -0.0756554 0.804315 0.560289 -0.114719 -0.209815 0.458052 0.23954 -0.257973 -0.912717 -0.687307 -0.605457 -0.751335 -0.734733 -0.155431 -0.879086 0.545335 0.624256 -0.00558489 0.0737022 -0.766106 0.655507 -0.60564 0.03708 0.920286 0.668142 0.739433 0.060152 0.0553911 -0.487289 -0.134556 0.47203 -0.858577 0.215491 -0.902646 -0.912046 -0.637684 0.334696 -0.571032 0.919797 0.703482 -0.14713 0.0975066 -0.297891 0.621693 -0.583972 -0.885067 0.548326 -0.671316 0.733573 -0.680776 0.0472121 0.750603 -0.0498367 -0.492782 -0.886105 -0.774957 -0.196081 -0.787774 0.907102 0.999817 -0.619251 0.688955 -0.875057 0.593982 -0.719718 0.666982 0.993286 -0.914243 -0.996765 -0.562304 0.256142 0.387982 0.375164 -0.165319 0.48442 0.574145 -0.183508 -0.328715 0.01236 0.318644 -0.726005 0.198218 0.815485 -0.488021 0.624195 0.142491 0.643056 0.114475 -0.638234 -0.10831 0.7163 0.311014 0.386517 -0.615467 0.305948 0.0286569 -0.300638 0.271401 0.501083 0.880306 0.821894 -0.0933561 0.481491 0.596728 -0.249611 -0.26426 0.607288 -0.991089 -0.741874 -0.360881 -0.363506 -0.35551 0.357524 0.79577 0.384808 -0.00106815 -0.265542 0.628773 -0.861446 0.546007 0.969115 0.395306 -0.86523 -0.451765 0.352702 0.984069 -0.580187 -0.268838 -0.884213 -0.518601 -0.60094 -0.116855 0.878903 0.0705893 0.391339 -0.556505 0.137303 -0.175451 0.498886 -0.858577 0.595141 0.95642 0.106906 -0.251808 -0.841731 0.0890835 0.324076 0.00503555 0.400861 0.107212 -0.322855 -0.210364 -0.684194 -0.846675 -0.627857 -0.417035 -0.835505 0.331645 0.433882 0.2996 0.235206 0.680349 -0.962584 0.543992 0.325114 0.976928 -0.656484 -0.645436 0.757012 0.937559 0.149937 -0.500595 0.743767 -0.626453 0.671987 -0.615955 -0.0867641 -0.13242 -0.235389 0.636219 -0.194678 -0.468673 -0.101962 -0.572069 0.154393 -0.591479 0.200232 0.599353 0.769768 0.0841395 -0.122227 0.644704 0.825556 -0.939958 0.328528 0.627311 0.374555 -0.5145 -0.739139 -0.931241 -0.108839 0.723692 -0.886392 -0.0784704 0.683564 0.454742 -0.858316 -0.380885 -0.0784029 0.73342 -0.599572 0.310769 -0.807504 -0.332546 0.00283273 -0.644054 0.299113 -0.78486 -0.0464135 0.0937887 -0.821347 0.710891 0.84407 -0.00961256 -0.283263 0.640712 -0.252135 -0.799009 0.30137 0.269314 0.619122 -0.362593 0.892235 -0.355658 0.50583 -0.43419 -0.544214 -0.427762 -0.106965 -0.165849 -0.454496 0.101194 -0.512736 0.757052 -0.129259 -0.90489 0.756392 -0.218998 -0.368977 -0.556718 0.526949 0.877723 0.463103 0.492962 0.986859 -0.130405 0.804022 0.231122 -0.66734 0.65795 -0.554523 -0.187503 0.471612 0.42481 0.162402 0.97339 -0.995127 0.892389 0.160681 -0.0827666 -0.142176 -0.283578 0.208244 0.197729 -0.155088 -0.973089 -0.793695 0.202124 -0.51596 -0.777275 -0.916807 -0.229294 -0.612563 -0.932664 0.760628 -0.474301 0.524634 0.131692 -0.959342 -0.533408 0.683634 0.699014 -0.793176 0.410854 0.421679 -0.894826 -0.825208 0.797377 0.850773 -0.31922 -0.0265743 0.488141 0.538364 -0.724338 0.39662 0.0627191 -0.145909 -0.532151 0.634549 -0.804562 0.074848 0.518361 0.66165 0.690966 -0.455977 0.0995108 0.267905 -0.284951 0.236184 0.941564 0.444694 0.799198 0.963331 0.332954 -0.949164 0.177102 0.641831 -0.330922 0.464173 0.015208 -0.152482 -0.978762 0.114922 0.100342 -0.00773098 0.826336 -0.335774 -0.452672 0.458271 -0.248844 -0.351313 0.0901429 0.982105 0.802582 -0.562884 -0.490621 -0.403901 0.723206 -0.75676 0.780502 -0.535935 0.766531 0.0976381 -0.518001 0.894223 -0.11583 0.500073 -0.967505 -0.13554 0.418218 -0.373892 0.338237 -0.641249 -0.683157 -0.118393 -0.622247 0.844144 0.997059 0.616504 -0.681182 0.166248 0.857649 -0.192743 0.712722 -0.781314 -0.458774 -0.473865 0.339935 -0.319612 0.99456 0.0125293 0.25245 0.112742 0.39458 0.144609 -0.415385 0.767242 0.993315 -0.854459 0.7116 -0.61545 -0.0349788 -0.681982 0.292588 0.319883 0.282725 0.624499 0.758114 0.28307 0.731403 0.932247 0.850699 -0.957467 -0.919348 0.729376 0.710476 0.363832 0.50261 0.126365 0.12289 -0.491375 0.28711 0.959042 -0.521137 0.65061 0.924002 -0.211894 -0.00625749 0.431551 0.60883 0.641368 0.761246 -0.939573 -0.762514 -0.735868 -0.791179 -0.789371 0.946729 -0.238724 0.49263 0.0523514 -0.716499 -0.655385 0.435734 0.72204 0.026993 0.0943332 -0.469293 0.550527 -0.231603 -0.512062 0.592023 0.35417 -0.71679 0.533146 -0.386619 0.106375 -0.234842 -0.70336 0.396208 -0.700756 0.996049 0.691552 0.543803 -0.682489 -0.529614 0.241008 -0.759314 0.0920262 -0.354515 0.771505 0.644012 0.464098 0.219569 -0.344902 -0.826735 0.398655 0.613847 -0.350023 0.441916 0.486249 -0.265682 0.923584 0.299623 -0.949472 -0.01994 -0.761722 -0.374919 0.0740429 0.641408 -0.000268853 -0.67646 0.346185 -0.284115 -0.922665 -0.769311 -0.878456 0.220185 0.108988 -0.650503 0.577266 0.0432431 -0.803458 -0.91292 0.398468 -0.57759 0.727725 0.982145 0.824454 -0.932583 -0.795204 0.524978 -0.564943 -0.892168 0.820404 0.626155 -0.0100675 -0.306422 -0.347855 0.294304 0.703112 -0.412651 0.295139 0.0732489 0.109385 -0.332224 -0.362024 -0.193897 0.0400598 -0.650919 -0.237015 -0.692814 -0.153879 -0.906193 0.632176 -0.489364 -0.717643 -0.925742 0.481983 0.581888 0.32344 0.948158 0.622611 0.663321 -0.778479 0.907681 0.602121 -0.259196 -0.852746 -0.972009 0.41143 0.222164 0.718056 0.949016 -0.366086 0.781994 0.691066 -0.945654 0.272559 -0.938144 0.166 -0.970312 -0.82145 -0.299242 0.63635 -0.92102 0.763492 -0.587123 -0.877305 -0.310784 -0.094698 -0.481609 0.77459 -0.905452 -0.161105 -0.43152 0.23101 0.474741 0.77914 0.639626 0.0211442 -0.0709151 0.215696 -0.191137 -0.605349 -0.601298 0.533036 0.408878 -0.249785 -0.619843 0.94789 -0.383115 0.176102 -0.245913 -0.608803 -0.0687369 -0.74601 -0.411183 -0.698561 0.112579 0.473607 0.082038 -0.943319 0.139769 -0.380614 -0.318334 0.850874 -0.24623 -0.577152 -0.564972 0.92899 -0.87173 -0.27781 -0.352871 -0.181868 -0.724743 0.575552 -0.105751 0.575493 0.701902 0.510199 -0.531535 -0.315796 -0.109403 -0.697668 0.325695 0.496246 0.207485 -0.43982 -0.473617 0.0502268 0.729196 0.458293 -0.619948 -0.966124 -0.383629 -0.125335 0.188045 -0.285762 -0.456925 0.307832 -0.237673 -0.344302 -0.183388 0.878562 0.732497 0.0461645 0.650698 0.664013 -0.27086 0.41018 0.22823 -0.235569 -0.534344 0.574461 0.115569 -0.660943 -0.147023 -0.350732 -0.440765 0.996031 -0.893186 0.855341 0.205549 0.772219 -0.97365 0.0214822 -0.0819292 0.0933981 -0.589696 0.548552 -0.907696 0.962716 -0.277437 0.665722 0.156983 -0.296213 -0.933844 -0.216898 -0.212581 0.633231 0.500763 -0.264816 0.379548 -0.139683 0.817536 -0.22332 0.336729 0.644765 -0.232034 -0.921393 -0.190398 0.533319 -0.141934 -0.363137 -0.711372 -0.348126 0.776116 -0.752983 -0.158966 0.417971 -0.547748 -0.470007 0.339985 0.0235688 -0.102853 0.707625 0.370665 -0.0267484 -0.17814 -0.0170539 0.336895 0.00705105 0.122063 -0.683218 -0.652437 0.712039 0.282092 -0.518541 0.427499 0.139864 -0.198427 0.0606781 -0.381692 0.738745 0.620842 0.372237 0.539531 -0.0844445 0.694024 -0.983242 0.982278 0.540242 -0.267155 0.910758 -0.942618 0.696575 -0.817527 -0.408052 -0.485813 -0.981334 -0.497238 -0.360034 -0.237098 0.880992 0.805665 0.990466 0.14032 -0.207556 -0.0629646 -0.0155325 0.0463207 -0.694515 0.0132129 0.944881 0.445914 -0.276581 -0.452682 -0.895669 0.341208 0.935342 -0.839076 0.692681 -0.239023 -0.286822 0.984127 0.995178 0.823139 0.744622 0.785676 0.201866 -0.533677 -0.262268 -0.0816928 -0.157079 -0.646795 -0.094751 -0.898496 -0.352127 0.580633 0.140078 -0.830815 -0.381531 0.682921 0.192331 0.762576 -0.860681 0.564061 -0.833068 0.103244 -0.063066 0.87455 0.647084 0.869108 0.696519 -0.603025 0.759236 -0.752504 0.154397 -0.971867 0.494875 0.226367 0.47468 0.899762 0.588491 0.184024 -0.280096 0.205263 0.302354 -0.15056 -0.75525 -0.699026 0.356309 0.678823 0.784582 -0.367839 -0.597284 0.726883 -0.884122 -0.940738 0.309063 -0.933854 -0.963872 0.142722 -0.45055 0.820534 0.515426 -0.0638185 0.0585027 -0.119358 0.816767 0.876385 0.83308 -0.664801 -0.586869 -0.691572 -0.401536 0.740113 0.473679 -0.779717 -0.149937 0.212783 0.798456 -0.253227 0.599514 0.477692 -0.0548529 0.00709119 0.109348 0.894348 0.407622 -0.167022 -0.0464801 0.526719 0.630572 -0.0409928 0.703979 0.335819 0.69933 0.228669 -0.446578 -0.447855 -0.517258 -0.616484 -0.785064 0.261188 -0.917966 0.998056 0.345072 -0.668534 -0.638986 -0.881039 0.890381 -0.338114 0.389767 0.177104 0.599126 -0.11005 -0.372173 0.72941 0.0448422 0.56748 -0.389258 -0.406171 0.466252 -0.112461 -0.986224 -0.0536126 -0.268477 -0.956297 0.859798 -0.0611614 0.75551 0.240543 0.705131 -0.621865 -0.345951 -0.540804 0.609187 -0.913661 -0.02097 -0.985274 -0.297264 0.433336 0.327198 -0.0148009 -0.83666 -0.338011 -0.358727 -0.445309 0.41946 0.532452 -0.495378 -0.642506 0.384169 -0.133162 -0.227379 -0.136019 0.537584 -0.451277 0.820918 0.883488 -0.328328 -0.455731 0.726752 -0.756903 -0.895916 -0.497421 0.721361 -0.300387 0.184332 -0.496129 -0.790921 0.167192 0.886386 -0.492547 -0.368229 -0.720084 -0.676302 0.085923 0.575393 -0.580126 0.971531 -0.0380539 -0.653554 -0.807295 -0.550477 0.988052 -0.631454 0.483932 -0.380349 0.0108265 0.720196 0.11086 0.870357 0.334018 0.102407 -0.838458 -0.637561 0.209022 -0.432931 0.0652358 -0.938995 0.990937 0.307512 0.465316 0.36029 0.499961 0.829652 -0.0402556 0.136082 0.141986 -0.183874 0.748223 -0.0027111 -0.613271 0.991088 0.31233 0.589039 0.10654 0.303628 -0.912351 0.737663 0.397488 0.739799 -0.707144 -0.743559 0.410231 -0.924386 -0.0824952 0.224695 -0.23606 -0.116131 -0.0491232 -0.449285 -0.894665 -0.891899 0.911252 -0.366314 -0.625233 0.514759 0.738747 -0.0649769 -0.658863 -0.663503 0.114477 0.272683 0.969739 0.421053 -0.733635 0.650319 -0.816141 -0.80567 0.328102 0.434429 -0.415617 0.753776 -0.691225 0.69158 0.68769 -0.59746 0.740918 0.497876 0.246133 -0.0614337 -0.93579 -0.965517 0.214087 -0.991578 -0.187513 0.279763 -0.0811723 -0.158492 0.661672 0.112215 0.00338577 0.674921 -0.594231 0.636033 0.698953 0.182169 0.919063 -0.458488 0.993959 0.219156 0.170446 -0.68645 0.259376 -0.802176 -0.649346 0.0997724 0.893063 0.402266 0.175084 -0.948363 -0.453355 0.557955 -0.574795 -0.0489811 -0.502908 0.967762 0.790464 -0.0664476 -0.275133 0.527574 -0.926451 -0.876817 -0.73809 0.931334 -0.178137 -0.0117453 0.371563 -0.617972 0.446583 0.233987 -0.876985 -0.881405 -0.107395 0.0415354 0.922963 -0.929365 0.922716 -0.53209 -0.433882 0.955992 0.0762047 0.818155 -0.630971 -0.869088 -0.633631 -0.197237 0.947142 -0.491775 0.779423 0.293003 0.199316 0.852481 -0.36487 0.486007 -0.937448 0.768242 -0.124971 -0.707346 -0.402263 -0.308878 -0.662343 0.761286 -0.0297553 -0.804061 0.084994 -0.652609 -0.111912 -0.0666902 -0.158054 -0.154515 0.058992 -0.492536 -0.387402 0.792093 -0.770508 -0.39061 -0.467216 -0.845332 -0.630728 0.714042 0.0258252 -0.881777 0.561571 -0.34141 0.319437 0.781163 0.163732 0.41093 -0.61012 -0.424724 -0.200332 -0.657582 -0.606279 0.219642 0.746941 -0.682998 0.650319 0.022616 -0.719735 -0.0908411 0.237831 -0.655873 0.536112 0.0633015 -0.734803 0.030488 0.456626 0.50741 0.881955 -0.365825 0.381399 0.232276 0.0888172 0.231934 -0.156651 0.350633 -0.587817 -0.34817 0.136084 -0.353007 -0.496323 -0.0755951 0.212256 -0.868706 0.728446 0.767814 -0.523111 -0.0901613 0.803888 0.921201 -0.96234 -0.315711 0.552111 -0.861791 -0.0254829 0.192115 0.827611 -0.34703 0.191565 0.901496 0.683829 -0.0687544 0.413536 -0.727532 -0.159938 -0.480576 0.888851 0.896117 -0.48851 -0.196386 -0.637035 -0.173588 0.666128 -0.509141 -0.117293 0.415693 -0.231927 -0.37313 0.996829 0.965392 -0.926389 0.959675 0.91058 0.507377 -0.460861 -0.535447 0.163793 -0.974669 -0.59441 0.84179 -0.612171 0.431197 0.520982 -0.201645 0.708305 0.606562 -0.536607 0.928593 0.354909 -0.175453 -0.471783 -0.995666 -0.959838 -0.138035 0.639393 -0.511887 -0.328654 -0.884091 -0.748527 -0.919431 0.955382 0.0366527 -0.700186 -0.883114 0.46202 0.189306 0.265969 -0.377483 -0.293985 -0.743156 -0.582263 0.841426 0.81164 -0.7022 0.288369 0.050264 -0.679006 0.569018 0.455672 0.469466 0.710623 0.228309 0.685049 0.084872 -0.823969 0.228553 0.498215 -0.808039 0.250099 -0.285012 0.229835 0.475143 -0.185888 0.239479 0.635365 0.434614 -0.932554 -0.89642 0.111911 -0.0261544 0.015717 -0.85699 0.59508 0.959105 -0.958556 0.265664 0.193579 0.564562 -0.880734 -0.943236 -0.374248 0.214881 0.23777 -0.23777 0.517991 0.938169 0.591357 0.963927 0.629749 -0.0591144 0.103916 -0.741752 0.0669271 0.219214 0.84698 0.252113 -0.454451 0.0166936 -0.0850551 0.186438 0.768914 -0.0571612 -0.680044 0.502609 -0.0191351 0.56444 0.468612 0.661367 0.756706 0.281167 -0.216712 -0.470687 -0.904599 0.300211 -0.969359 0.643605 0.875118 0.5197 0.919431 -0.33195 0.733818 -0.864376 -0.469832 -0.646352 0.43907 -0.216041 0.140355 0.315165 -0.19187 -0.970397 0.00491348 0.936277 0.24131 0.0164495 0.658254 0.716971 -0.0688803 -0.91052 -0.703482 0.374065 0.810114 -0.797479 -0.19425 -0.991333 0.298624 0.923032 0.996033 -0.34788 -0.0830409 0.847591 0.606006 -0.496445 -0.177526 0.239723 0.638844 0.171606 -0.665029 -0.296854 0.593127 0.23191 0.513596 0.702445 0.150426 -0.585925 0.846065 -0.256142 -0.117283 0.729972 0.114414 0.0290231 -0.458541 -0.144505 -0.501205 0.393597 0.491806 0.0793176 -0.0180364 0.34373 -0.146947 0.130161 0.116855 -0.99762 0.909421 -0.804376 0.220557 0.778985 -0.647877 0.445051 -0.944029 -0.427046 -0.083224 -0.631947 0.0646077 0.32664 0.976928 0.243507 -0.787591 -0.2631 -0.342204 -0.952025 -0.488449 0.940062 -0.968139 0.119724 0.280496 -0.0182196 -0.0409253 0.88818 0.204566 0.885006 -0.866573 -0.0175481 0.260292 -0.872738 -0.0995819 -0.9682 -0.434797 0.341716 -0.594958 -0.530747 0.215796 0.0520341 0.635304 0.651967 0.176672 -0.743767 0.922422 0.610523 0.282449 -0.330058 -0.539354 -0.26017 0.416181 -0.557787 -0.59093 0.743461 0.925047 -0.843013 -0.862239 -0.855342 0.337931 0.932066 0.181616 -0.32371 -0.554552 0.427717 0.462447 0.862239 0.806146 0.578845 0.344829 -0.897763 -0.259255 0.861568 0.084933 0.574145 -0.122532 0.907773 0.237342 0.263649 -0.689566 0.279763 -0.419233 0.436934 0.434065 -0.782342 0.126499 -0.134129 -0.485031 0.171789 -0.229347 0.120884 -0.933775 0.932737 0.154088 0.241493 -0.91699 -0.828242 0.291177 0.0993988 0.205603 -0.796258 -0.468612 -0.235511 0.869564 0.785272 0.414777 -0.812067 -0.492599 0.760186 0.984741 -0.486007 -0.136631 -0.634327 -0.879818 0.332987 0.483688 0.0110782 0.450362 0.188574 0.445418 0.340983 0.412824 0.651234 0.386029 -0.602771 0.0202338 -0.729667 0.896176 0.690054 -0.105014 -0.281533 -0.661794 -0.00759911 0.137181 0.438765 -0.846553 -0.330668 0.58623 0.109043 0.719291 0.354961 -0.960021 -0.765007 -0.179418 -0.210425 -0.00643941 0.184484 0.796136 -0.370525 -0.540819 0.975829 0.423811 0.042085 0.43199 -0.867367 -0.393658 0.898373 0.561754 0.9176 0.920408 -0.624439 0.594653 0.257057 -0.90875 0.783074 -0.853145 0.670583 0.456282 0.422468 0.373089 0.515732 0.4785 -0.703848 0.0912809 0.862789 -0.626087 -0.524339 0.927854 0.31016 0.914792 -0.0573443 0.0441603 0.0541704 0.470199 0.715079 0.00827052 -0.475326 -0.651173 0.0713218 0.372845 -0.0995209 -0.496017 0.684011 0.523423 -0.184729 -0.335551 -0.523362 -0.642018 0.567797 0.954344 -0.984191 0.361919 -0.851375 -0.937254 -0.749687 -0.361064 0.395856 -0.972167 -0.58916 -0.537461 0.591479 -0.304483 0.882565 0.908872 -0.187231 -0.0829798 0.8623 0.134373 -0.650746 -0.452437 -0.386151 -0.139683 -0.501083 -0.692495 -0.866756 0.627125 0.0556352 0.569994 0.0365917 -0.619678 0.800775 -0.863765 0.4832 -0.0484329 0.311075 0.0625324 -0.053621 0.996033 0.395184 -0.400739 -0.355632 -0.0502029 0.472213 -0.693106 0.443892 0.569445 -0.796625 0.409467 0.0487381 0.615467 -0.309061 -0.55089 0.286294 -0.756645 -0.444929 -0.695853 0.303995 0.664113 0.203284 0.632496 0.488693 -0.363689 0.602527 -0.19657 0.920652 -0.646474 -0.131382 0.380596 -0.824213 -0.712027 -0.015595 0.217566 -0.711905 -0.445845 0.958739 -0.770135 0.683828 -0.645497 -0.259865 -0.0951262 0.901852 0.0692465 -0.803461 -0.387494 0.911313 0.553758 0.473861 0.779595 0.83929 -0.794916 -0.954161 -0.010712 0.921323 0.360759 -0.231605 0.0696127 -0.513169 -0.408307 -0.750359 0.232276 0.792779 -0.547166 0.849483 0.324625 0.516404 0.252663 0.619861 0.257912 -0.278115 -0.594897 -0.500351 0.673391 -0.888485 -0.0741295 0.0756554 -0.0906095 0.374187 -0.364299 -0.777581 -0.668203 0.444685 -0.366558 0.933409 0.0899991 -0.514634 -0.39903 0.656362 -0.638966 0.403119 0.502487 -0.555162 -0.85461 0.713553 0.241066 -0.76104 -0.325175 0.565966 0.834895 -0.413068 0.496872 -0.259682 0.674978 -0.878903 -0.702628 -0.56975 0.428022 0.100253 -0.47618 -0.3773 0.14597 -0.669424 0.8717 -0.111789 0.144993 -0.221473 -0.30314 0.39433 -0.783074 0.186743 -0.583483 0.953124 0.734794 -0.992615 -0.0397046 0.917356 0.215674 -0.0360424 0.335063 -0.263894 0.902829 -0.44615 -0.634693 0.983764 0.930113 -0.193823 0.672109 -0.327006 0.630909 0.604724 0.952452 -0.332926 -0.446272 0.890744 -0.37785 -0.999512 -0.252052 -0.943724 0.884579 -0.0760826 0.880917 -0.157506 0.287271 -0.517075 -0.249916 0.0530717 0.829829 -0.554491 -0.247902 0.39787 0.684744 -0.611255 0.871029 -0.22306 -0.405866 -0.240822 -0.250832 -0.681021 0.00485244 0.717215 0.402142 0.486129 0.00424207 -0.419965 -0.859188 0.557543 0.118992 0.674673 0.263161 -0.195593 -0.959655 0.412641 0.0778527 -0.330973 0.337138 -0.598621 -0.177709 0.260109 -0.780755 0.402142 -0.961669 0.476852 -0.584277 -0.0517899 -0.0334788 -0.924986 -0.773186 0.436323 0.52324 -0.0137638 0.81579 0.502731 0.421918 0.203894 -0.199194 0.496994 0.00137333 -0.451704 -0.789727 0.866146 0.323954 0.622852 0.863948 0.261269 0.105014 0.27427 0.242286 -0.820429 0.0378735 0.869137 -0.0934782 -0.0462966 0.0749229 0.699393 -0.467513 0.901242 0.22898 -0.170507 -0.380718 -0.552721 0.456038 0.697073 0.937376 0.032075 0.182958 -0.220008 0.776299 -0.384564 -0.957762 -0.357158 0.0566729 0.593005 -0.623951 -0.325724 0.367534 -0.066744 0.0723594 0.828608 0.991516 0.351299 0.295694 0.683401 0.981933 0.329264 0.674856 0.126499 0.351848 0.797174 0.510361 -0.0157781 -0.559923 -0.713248 0.563524 0.903134 0.514634 -0.629872 -0.00961333 0.798883 0.677236 0.195898 0.982604 -0.816584 0.131382 -0.0641194 -0.322184 0.683828 0.87579 -0.0455031 0.902219 -0.935057 -0.113865 -0.48735 -0.692862 0.0686361 -0.15183 -0.179785 0.463546 0.381756 -0.49675 -0.752251 0.475204 -0.954588 0.670095 0.511826 -0.325602 0.61858 0.00509659 -0.355571 0.961913 0.407575 0.562731 -0.43907 0.354167 -0.925169 -0.780084 0.0378735 0.300089 0.939024 -0.974181 0.913327 -0.670644 -0.721305 0.539964 0.322367 0.59624 0.953185 -0.779229 0.780633 0.879086 -0.348857 0.928587 0.927488 0.600635 0.0820643 0.602832 -0.257912 0.429792 0.420148 0.178747 -0.955199 -0.972411 -0.6845 0.804376 -0.904172 -0.498825 0.784417 -0.579455 -0.895566 -0.87402 -0.710074 0.767632 -0.539476 -0.0986663 0.327799 0.879147 -0.498459 0.499374 0.82757 -0.872555 -0.372967 -0.828181 0.68334 0.882199 -0.426984 0.176122 -0.274514 -0.155858 -0.340251 -0.716788 -0.553148 0.118137 0.823847 0.930357 -0.205298 -0.913877 0.248451 0.580432 0.341838 -0.856136 0.40379 0.851619 0.149266 -0.63683 0.309671 0.977905 -0.367351 -0.85754 0.834101 0.165441 0.74517 0.908628 0.838374 0.404889 0.789178 -0.0690023 -0.0162664 -0.696219 0.169469 0.312601 -0.990661 0.500961 -0.599475 -0.781732 -0.703726 0.225135 -0.320414 0.404828 0.528977 -0.438887 0.339457 -0.886959 0.266335 0.984985 -0.507981 -0.612781 0.236549 0.731376 -0.823908 -0.118686 -0.834101 -0.444136 -0.678457 -0.783074 0.956236 -0.546373 -0.15775 0.954405 0.0214545 0.898129 -0.829585 -0.760979 0.598071 0.161473 0.545213 -0.813288 -0.160253 -0.720267 0.367168 -0.930723 -0.489914 0.225013 -0.0679037 0.363689 0.0852382 -0.152989 0.855892 0.727042 0.0795007 -0.853328 -0.496323 -0.0406201 0.405988 -0.555345 0.73516 0.0179754 0.584521 -0.993835 0.278665 -0.855708 0.610462 0.686209 0.0472121 -0.832942 -0.70452 0.155919 -0.292398 0.0434889 0.894162 -0.725761 0.81695 0.701285 0.827143 0.166356 0.83697 0.243995 0.316019 0.571032 -0.659169 0.582263 0.739494 0.0212104 -0.276772 0.552904 -0.474715 -0.581896 0.726554 0.589404 0.389752 -0.437056 -0.903073 0.00509659 -0.26249 -0.792474 -0.318949 -0.0474563 0.033845 0.187963 0.276894 0.121006 -0.0381787 0.201514 -0.449263 0.234718 0.177892 0.791803 -0.666128 0.414533 0.476852 -0.897275 -0.390362 -0.534959 -0.820185 0.964782 -0.494919 -0.8493 0.557604 -0.124668 0.598987 -0.478439 -0.899045 -0.563097 -0.141942 -0.646352 0.452132 -0.185705 0.515976 0.76397 -0.192358 -0.226356 0.204627 0.0643635 -0.392193 0.866512 0.653188 -0.0836512 -0.67748 -0.679373 0.265114 0.848506 -0.851924 0.200598 -0.112766 -0.799738 0.426435 -0.600269 -0.917722 -0.445967 0.599109 0.0275582 -0.781915 0.717399 -0.49028 0.753655 0.685659 -0.680593 0.865963 0.670949 0.558214 0.0822474 -0.325907 0.241615 0.00509659 0.831111 -0.540513 0.88702 -0.228858 -0.694876 0.0838343 0.784722 -0.964537 -0.168493 -0.0270089 -0.564745 -0.038728 0.925047 -0.432417 0.561022 -0.749809 -0.123325 -0.191565 -0.101169 -0.987732 -0.607898 0.469955 -0.548997 0.265603 0.344279 0.153294 0.754509 -0.623402 -0.299112 0.7528 0.732963 0.754936 -0.308817 0.206885 0.693167 0.114231 -0.727287 0.347087 0.0280465 -0.387799 -0.0383007 -0.342936 -0.809931 -0.81811 -0.911008 -0.245705 -0.504135 -0.63329 0.544908 -0.593066 0.325541 -0.0278024 0.0736412 0.89819 -0.72045 -0.153417 -0.817499 0.551073 -0.145482 0.102573 0.725822 0.225867 0.201331 0.093234 0.22721 -0.397687 -0.472396 0.454268 0.00320444 0.0599689 -0.292459 0.525193 0.149815 -0.0316477 0.660939 0.461653 -0.545518 0.199927 -0.935789 -0.647755 0.297403 -0.321879 0.956664 -0.348979 0.602222 -0.226661 -0.197668 -0.76043 0.901181 -0.641469 0.573168 -0.570116 -0.424482 -0.662099 -0.587207 0.221717 0.334147 0.46086 -0.554369 -0.874203 0.993164 -0.767144 0.292398 0.866634 -0.381146 -0.262551 -0.144017 0.275674 -0.903867 0.180273 -0.0614948 -0.310282 0.185583 -0.0317087 0.253517 -0.835505 0.130711 0.137059 0.394757 0.818171 0.879574 0.937559 0.32487 -0.385052 -0.0190741 -0.60387 0.946104 -0.0954924 0.219459 0.659902 -0.685171 0.0258492 -0.948424 -0.0616169 0.0643635 0.291299 -0.0954314 0.857479 -0.403912 0.66155 0.401227 -0.966247 0.603504 -0.575488 -0.426923 0.686148 -0.509934 -0.809076 -0.875546 -0.906796 0.244789 -0.481796 0.809626 0.712333 -0.663259 0.476608 0.985534 -0.229835 -0.807855 0.468307 0.403241 -0.860714 0.815424 0.613758 0.30015 0.311869 -0.882382 -0.983581 0.855098 0.283792 -0.485397 -0.780755 -0.930723 0.16129 -0.643422 0.164586 0.136265 -0.697195 0.7528 -0.0290841 -0.638661 -0.191565 0.352947 0.838496 0.69573 -0.830195 0.648366 -0.603809 0.94525 -0.107944 0.354717 -0.19779 -0.282022 -0.0984222 0.439985 -0.0884121 0.172948 0.551073 -0.641041 -0.178014 0.63097 0.0346995 0.0572832 -0.888424 0.112705 -0.973815 0.307657 0.0802942 -0.136143 0.352031 0.940611 -0.692312 -0.0683309 -0.488327 -0.467757 0.8399 0.854793 -0.140782 0.111667 -0.682485 -0.471541 -0.743522 0.449812 0.358013 -0.691275 0.0116886 -0.506211 0.50383 -0.583544 0.916257 0.507675 0.0501419 -0.294534 -0.809381 0.482406 -0.93646 -0.143895 -0.845576 -0.621021 -0.0954314 -0.94293 -0.570116 -0.235145 0.567064 -0.761834 -0.5056 0.408185 0.14597 -0.0838954 -0.607532 0.391278 0.747002 -0.28367 -0.579455 -0.693899 -0.850337 0.632984 -0.402936 0.0945769 0.5374 0.089816 -0.269997 0.0953093 -0.39433 0.864193 -0.105258 0.860836 -0.637257 -0.0632649 0.134312 0.305521 0.93292 0.329875 -0.804804 -0.250465 0.677236 0.996338 -0.88934 -0.581286 -0.0571612 0.821711 -0.5562 0.964293 -0.246559 -0.197851 0.00393689 0.564745 -0.24601 -0.539232 -0.152318 -0.827692 -0.278237 -0.435347 -0.622181 -0.533738 0.955992 -0.794794 -0.647511 0.0757164 -0.140721 -0.69573 -0.383343 0.634632 -0.976989 0.608325 -0.630848 0.231117 0.128819 0.233924 -0.22306 0.814386 -0.0210883 0.825922 0.750053 0.120151 -0.0318308 -0.608081 0.688711 -0.32078 0.31016 -0.125401 -0.984191 0.469893 -0.671072 0.525071 0.307352 -0.222694 -0.869381 0.139317 -0.167943 -0.176916 -0.0342723 0.220923 -0.684988 -0.273904 0.595569 -0.86877 0.735405 -0.641591 0.975219 -0.708853 0.972289 0.658071 0.565294 -0.504379 -0.889523 0.960997 0.585131 -0.595874 -0.780511 -0.0842006 -0.480331 0.269509 0.416669 0.542344 0.193396 0.967528 -0.971252 -0.00241096 -0.277932 -0.610462 0.66393 0.611072 0.657216 0.261391 -0.994934 0.752373 0.633229 -0.550035 -0.85992 0.0929289 0.831965 -0.17893 0.238075 0.825312 0.575488 0.710318 -0.612964 -0.598682 0.360515 0.0696738 -0.596484 0.353008 0.646901 -0.647023 0.427473 0.757439 0.712088 0.201147 0.115024 0.908872 0.885067 0.991577 0.241188 -0.239479 0.471297 0.312967 0.525437 0.698294 0.68157 -0.571764 -0.508042 0.208594 0.877438 0.788934 -0.821589 -0.995911 -0.55443 0.661733 -0.496078 0.168249 -0.3867 0.932127 -0.889706 -0.118076 -0.481735 0.145054 0.488205 -0.704825 0.844478 0.847591 0.201147 -0.894711 -0.663137 -0.706473 0.0193793 -0.595264 -0.491928 0.575182 -0.223304 0.361187 0.848384 -0.757744 -0.23777 0.291787 -0.14774 0.472457 -0.540147 0.694998 -0.825983 -0.145665 0.448042 0.801263 0.22483 0.847285 0.272011 -0.793756 0.523179 -0.0216987 -0.898618 -0.851558 0.112522 0.840876 -0.0149236 0.993835 0.35728 0.956114 0.516648 0.489547 -0.569811 0.560411 0.722526 0.350932 -0.195837 -0.619068 0.984558 -0.258583 0.0597247 0.462081 0.811335 -0.789178 0.32194 -0.894955 0.268593 -0.347636 -0.361187 -0.0163274 0.883358 0.842097 0.613147 0.497665 -0.168126 0.12241 -0.399213 -0.572497 0.226905 0.793512 -0.211402 0.952391 -0.686514 0.773247 -0.537217 -0.906735 -0.611438 -0.910154 0.781854 0.645436 -0.744926 0.769036 -0.634571 -0.339396 -0.975768 -0.322733 0.0128483 -0.456709 0.0774865 -0.113742 0.861812 -0.177709 -0.998779 -0.882076 -0.697684 -0.339335 -0.692801 0.83459 -0.0438551 -0.833247 -0.250465 0.536119 0.0355541 0.568041 -0.94702 0.826594 0.393353 0.311014 -0.136692 0.812983 -0.423261 0.14951 -0.267373 0.398358 -0.80224 0.283425 -0.0472121 -0.967833 -0.0672323 0.61095 0.0490432 -0.520066 0.462508 -0.84344 0.745598 0.175024 0.667409 -0.262612 -0.78283 0.715323 -0.611927 -0.0699179 -0.561876 0.0659505 0.0655232 -0.598865 -0.559252 0.0328684 0.572069 -0.336711 0.297647 -0.432478 0.546861 -0.680532 0.638295 0.466048 0.547411 -0.141697 -0.486618 0.0260933 0.33018 0.0623493 -0.580004 -0.777154 0.572314 0.0924406 0.298318 -0.0330515 -0.652455 -0.689688 0.314432 0.00711081 -0.331339 0.901608 0.240455 -0.960326 -0.591784 -0.637501 -0.755242 0.588 -0.0885952 -0.0876186 0.904965 -0.786676 0.612537 -0.10593 -0.744316 -0.379192 -0.0325022 -0.774468 -0.314982 -0.778008 0.0162053 -0.0356151 0.489731 0.717215 0.885067 0.0484329 -0.0959197 0.259865 0.544481 -0.725578 0.413739 -0.234779 0.132298 0.577868 -0.833247 0.926634 0.155919 0.675161 0.295694 -0.499863 -0.113376 -0.867061 -0.0389721 -0.577136 -0.743339 -0.0753502 -0.0687582 -0.675771 -0.426191 0.538072 0.509262 0.995422 0.36436 0.696524 0.620045 0.377422 0.657094 -0.244606 -0.129917 0.632252 0.022248 0.837397 0.39256 -0.142613 -0.324137 0.767937 -0.710135 -0.991638 0.9635 -0.125278 -0.513535 0.590197 -0.464827 0.71221 -0.195654 -0.319071 0.524766 -0.225135 0.073397 -0.149815 -0.955382 -0.738884 0.0900601 -0.465804 -0.689383 0.950621 0.235267 -0.569445 0.707327 -0.743156 0.565966 0.475326 0.107639 -0.481002 0.190893 0.963805 0.759026 0.593493 -0.255043 0.379376 -0.951903 -0.190588 0.77282 0.49144 -0.542711 -0.650136 0.835749 -0.71514 -0.975402 0.121067 0.153539 0.285073 -0.379437 0.172643 0.593921 0.838984 -0.646413 -0.26896 0.822199 -0.0837123 -0.583056 -0.0912198 0.42375 0.992676 -0.310343 -0.848079 0.811213 0.576952 -0.596423 0.48851 -0.27018 -0.0537431 0.189673 -0.36021 -0.827326 0.649648 -0.184484 -0.941893 -0.481429 -0.655385 -0.0732749 -0.0480056 -0.294778 0.527879 0.104892 -0.637135 0.249794 0.722709 -0.445723 0.354717 0.930174 0.686575 0.729972 0.379559 -0.0619221 -0.799677 0.220069 -0.118809 0.318339 -0.997864 -0.805963 0.199622 0.504685 0.428205 0.730399 0.839167 0.766717 -0.676931 0.334941 -0.838313 0.378826 0.782525 0.963988 0.568957 -0.675344 -0.710074 0.863338 0.234657 -0.650746 0.810846 -0.46379 0.451094 0.170934 -0.594043 0.152623 0.650258 -0.333781 -0.0729087 -0.287027 0.16422 -0.160192 -0.642933 -0.722526 0.785943 -0.607715 0.357036 -0.42497 -0.807062 0.697928 -0.417341 0.30314 0.29783 0.00473037 0.333415 0.431806 -0.414411 0.670644 0.0953093 -0.175878 -0.496689 0.246376 0.541429 -0.514573 -0.0380566 -0.781121 0.5515 0.753899 0.0141911 0.227638 -0.186071 0.74517 0.771172 -0.434492 -0.428083 0.363323 0.619007 -0.222022 0.0769372 0.190954 0.799493 -0.828181 -0.688406 0.570238 0.41612 -0.952818 0.544603 -0.812006 0.928343 0.464278 -0.719779 0.47795 -0.803278 -0.642506 -0.8352 0.150487 -0.858272 -0.189123 -0.587268 -0.835078 -0.922605 0.304605 -0.685537 0.455611 0.784417 0.747978 0.389325 0.723502 -0.617176 -0.890622 -0.255348 0.607898 0.0693075 -0.543382 -0.794305 -0.451216 0.778924 0.219764 -0.223975 0.653188 0.835932 0.489242 -0.00619526 -0.121921 0.655263 -0.838252 -0.255776 0.842402 0.557421 0.746147 0.0918302 -0.420209 -0.241615 0.641652 0.694937 0.546129 -0.400983 -0.297952 -0.635609 0.19248 0.0741295 0.896847 -0.670522 -0.581835 -0.274392 -0.117222 0.773309 -0.786065 -0.0392163 0.298074 0.20011 0.810053 -0.140538 -0.408246 0.197424 0.640187 0.531663 0.200598 -0.845088 -0.565355 -0.911802 -0.113559 -0.496872 -0.245277 -0.712027 0.0458693 0.033784 -0.719291 0.922605 -0.1948 0.864925 0.167272 -0.998108 0.713065 0.613147 -0.223487 0.80401 -0.15659 0.335185 -0.896725 -0.150975 0.120701 -0.198462 0.204138 0.862972 -0.319498 0.664907 0.942564 0.791314 -0.921995 0.0850551 0.363445 -0.0737632 0.156285 -0.626148 -0.991516 0.209815 -0.613025 -0.777825 -0.513779 0.775018 -0.50267 0.0710166 -0.392621 -0.212195 0.193335 -0.810175 -0.59978 0.652699 -0.205969 -0.975402 0.316935 -0.35667 0.588366 0.37785 -0.0567339 -0.977477 -0.273293 0.982788 0.525864 0.711966 0.460616 -0.965026 0.627125 0.575732 -0.457747 0.243507 0.222633 0.379681 -0.402875 -0.0361644 0.551683 -0.511093 0.280984 0.975402 -0.965331 -0.634144 -0.96466 0.466292 0.569201 0.932249 -0.747246 0.787469 -0.482589 -0.144078 0.664602 -0.461165 -0.302042 -0.173009 -0.236 -0.450117 0.69335 0.88403 -0.922788 0.317789 -0.213172 0.853633 -0.906125 -0.535875 -0.159154 0.966124 -0.329142 -0.225257 0.428816 -0.29075 0.721061 0.383221 0.533738 -0.017304 0.999512 -0.338237 0.125523 -0.384198 0.800226 0.382 0.929991 0.311441 -0.624866 0.706839 -0.298929 -0.922422 0.888668 -0.422224 0.310709 -0.789727 -0.280496 0.0589312 -0.0339671 0.88934 0.92291 -0.799738 -0.130467 0.450056 0.665395 -0.0164495 -0.368267 0.393597 0.444929 -0.0879238 -0.248512 -0.802728 -0.091586 -0.191931 -0.525864 0.989135 0.0793176 -0.621021 0.342021 0.147191 -0.191565 -0.883297 0.748039 0.88818 -0.740715 -0.909726 -0.193884 0.906186 -0.75866 0.196387 -0.149144 -0.875301 0.203528 0.428999 -0.122471 0.624989 -0.299783 -0.268593 -0.762871 0.811945 0.142613 -0.00772118 -0.102634 -0.118686 -0.352641 -0.25071 0.582324 -0.349834 -0.20426 0.16184 -0.896298 -0.187231 -0.88464 -0.184118 0.196692 -0.315104 0.0971404 0.923887 -0.829585 0.499374 0.559313 0.480636 0.689749 0.314188 -0.827326 0.939879 0.996216 0.59685 -0.0423902 -0.0281075 0.884213 0.5468 -0.433454 -0.133518 -0.256569 0.218848 0.164098 0.142308 -0.0202948 0.509812 -0.28251 -0.0738243 0.127781 -0.929563 0.509384 -0.335795 -0.0325022 0.206641 -0.314127 0.727409 -0.0431837 -0.169652 0.652455 0.474715 0.293802 -0.475387 -0.870296 -0.665212 -0.0806604 0.784051 0.68218 -0.528916 0.774529 -0.506882 -0.468429 -0.41026 -0.375958 -0.293558 -0.531114 -0.543748 0.758782 0.791009 0.675222 0.680471 -0.110813 0.994934 -0.733818 -0.666005 0.543382 -0.495468 -0.628346 0.962401 -0.718986 0.0518509 0.562181 -0.446028 -0.9635 0.135533 0.436384 -0.971435 0.903378 0.9176 -0.819086 0.807672 -0.327738 -0.141453 -0.0846889 0.0298776 -0.563707 -0.846797 -0.365459 -0.0270089 0.574206 0.0294504 0.561876 -0.754631 0.42552 -0.0265816 0.724357 -0.689871 0.969726 0.942503 -0.43675 0.902707 -0.178808 -0.370769 -0.607532 0.906674 -0.146031 -0.161412 0.516953 0.248085 -0.232948 0.0409253 0.823603 0.372723 0.904172 0.163121 -0.342448 0.867061 0.639576 0.680715 0.796258 -0.213355 -0.356731 0.073336 0.33311 -0.745659 -0.663076 -0.294412 0.284646 -0.110019 0.854427 0.196692 -0.268227 0.634816 -0.181921 0.340373 0.309977 -0.467025 0.244667 0.638417 -0.141636 0.0329295 -0.108188 0.510056 -0.957762 0.369854 0.359294 -0.760796 0.760857 0.593799 0.255898 -0.277017 -0.848262 0.80401 0.745842 -0.916746 0.00698874 -0.846919 -0.213965 -0.796258 -0.589648 -0.816584 0.367901 -0.744072 0.410993 -0.942442 -0.925108 -0.724479 0.543626 0.246132 0.269631 0.851802 0.00979644 0.235145 0.221473 -0.00668355 -0.668386 0.815241 0.489364 0.23191 0.290017 0.515427 0.869747 -0.973327 0.961364 0.744255 -0.775933 -0.467635 0.664052 0.199927 0.497848 0.792535 -0.372417 -0.887204 0.24308 0.421552 -0.803034 -0.117527 0.957518 0.83758 -0.615162 -0.328532 0.552416 -0.891964 -0.416791 -0.480758 -0.737602 -0.528184 -0.751274 -0.462691 0.308573 0.598804 0.3726 0.749565 0.62804 0.650929 0.547777 -0.860836 0.98291 0.206336 0.447371 0.465682 -0.239967 0.109043 0.524583 -0.587024 -0.224586 0.307169 0.74865 -0.366619 0.393902 0.741813 0.187719 0.247108 0.279031 0.349223 0.252846 -0.637623 -0.916623 -0.761101 0.413312 0.177404 -0.606555 0.109775 0.198462 0.226417 -0.759758 -0.0328074 0.296304 -0.666982 0.489486 0.203284 0.562487 0.833613 -0.577319 0.103183 -0.24778 -0.368633 0.822748 -0.160802 0.78692 -0.353191 -0.125095 0.0160833 0.368816 0.223365 -0.801996 -0.170385 0.755486 0.0540483 -0.684133 0.900632 0.50737 0.189062 -0.116733 0.847468 0.0201117 0.68865 -0.0215766 -0.340434 0.654653 0.482589 0.773675 0.933897 -0.722526 0.999512 0.898434 -0.963012 -0.976135 -0.87225 -0.194555 0.256325 0.0956145 0.0716269 -0.54619 -0.999268 -0.593066 -0.336589 -0.379559 -0.883847 0.8905 0.69628 -0.846431 -0.624683 -0.724418 0.838313 0.47972 -0.793207 -0.847591 0.691397 -0.323038 -0.275246 0.13303 -0.443037 -0.572314 0.12125 -0.0770592 -0.528367 -0.837764 0.485397 0.115452 -0.925474 -0.293435 -0.890194 0.520981 -0.130772 0.74633 -0.651357 0.843867 0.44261 0.419904 0.08829 -0.480331 -0.796381 -0.647023 0.894101 0.525193 -0.796197 0.446883 -0.104587 -0.0270699 -0.397687 0.732902 -0.528306 -0.69573 -0.662038 0.606494 -0.19895 0.891964 -0.42906 0.751946 -0.664663 0.865413 0.456648 0.0714438 0.263466 0.971618 0.813654 0.93054 0.0250557 0.283364 0.249001 -0.967772 0.937803 0.56737 0.303201 0.232887 -0.999817 0.125645 0.176794 -0.388653 -0.066744 -0.0784631 -0.398297 -0.894406 -0.47795 0.803705 0.419843 -0.9729 0.32139 -0.360027 -0.569384 -0.232643 -0.213294 -0.825556 0.0713218 -0.992126 -0.106418 -0.581286 -0.508896 0.747307 -0.692129 -0.60802 0.583056 -0.54387 0.169103 -0.979675 -0.46556 -0.32548 0.549791 0.00918607 0.460677 0.362468 0.652821 -0.499374 -0.31785 0.317179 -0.1901 -0.671133 -0.790704 -0.030427 0.342936 0.685232 -0.00344859 -0.128758 -0.648427 -0.993957 0.528489 -0.813532 0.488876 0.896115 -0.69921 0.499802 0.787408 -0.101169 0.757744 0.252663 0.599231 0.927976 -0.750481 -0.878109 -0.288797 0.170385 0.571703 -0.348247 -0.300821 0.275246 -0.351176 -0.54796 -0.418256 -0.359783 -0.0743736 -0.724052 0.838862 -0.391827 -0.973144 0.288675 0.854854 0.386151 0.250526 -0.159948 0.850642 -0.500229 0.453963 0.0537431 -0.633595 -0.404645 -0.101413 0.545213 -0.642689 -0.59801 0.612903 -0.418683 -0.0345164 0.666433 0.838435 0.993408 -0.970214 0.872738 0.11948 -0.842891 -0.603259 0.560472 0.600513 -0.648793 -0.905271 -0.948119 -0.907468 -0.192724 0.433515 -0.597034 -0.527757 0.764031 0.0926237 0.388531 -0.0254219 0.837336 -0.739677 0.335551 0.943602 0.0199286 -0.114475 0.61681 -0.398297 -0.378399 0.106052 -0.38316 -0.59801 0.464095 0.914792 0.983093 0.524216 -0.358013 -0.87347 0.974731 -0.921812 -0.837519 0.708792 0.722037 -0.423139 0.777093 -0.46263 0.207617 0.241066 0.316202 -0.358867 -0.216468 -0.300943 -0.158666 -0.00308237 0.0359203 0.643178 0.925352 -0.061861 -0.190832 -0.994629 -0.625904 0.238868 -0.796136 0.216041 0.702994 -0.063509 -0.641346 -0.894345 0.678518 -0.0448927 -0.169103 -0.984558 0.239723 -0.408368 -0.613514 0.675527 -0.889279 0.928709 -0.986816 0.416791 -0.582873 -0.765069 0.968566 0.276406 -0.381024 0.416608 0.675466 -0.43968 0.0723594 -0.418012 -0.721549 0.42613 0.532701 -0.217689 -0.327921 -0.953429 0.91174 0.990173 -0.185461 0.919187 -0.398785 0.379009 0.139195 -0.118503 0.6751 -0.0336009 0.876034 -0.603137 0.283303 0.682119 0.0957976 -0.328166 -0.450301 0.925291 0.289651 -0.832087 0.28605 0.672109 0.295694 0.0706503 0.834712 -0.803461 0.386456 0.278359 0.353679 -0.532579 -0.671377 -0.527696 0.854488 -0.71691 -0.771905 -0.16776 -0.692984 0.207434 0.972411 0.958068 -0.876644 0.368755 0.0835292 -0.438215 -0.667592 0.184851 -0.206275 -0.508957 0.759392 -0.92407 -0.844417 0.647633 -0.479415 0.228797 -0.999451 0.362102 -0.851741 -0.526292 -0.442549 -0.210791 -0.344096 -0.662343 0.543199 0.884396 0.857906 0.33549 -0.460738 0.525132 0.255531 0.561876 -0.534349 -0.660634 0.801874 -0.353191 0.964721 -0.19657 0.858211 0.13657 0.50792 -0.828181 -0.34611 0.363201 0.0375683 -0.198157 0.563463 -0.135472 0.956725 0.435041 -0.488327 -0.582141 0.278298 0.998169 0.820795 0.749016 -0.252235 0.486312 -0.188818 -0.0202338 -0.24955 0.490524 0.468612 -0.123508 0.816889 -0.0677816 -0.509629 0.961303 0.537584 -0.432295 -0.976928 0.549547 0.701651 -0.176 -0.59624 -0.224281 0.469283 0.529649 0.217811 -0.330424 0.393048 0.102573 0.985961 0.345866 -0.90173 0.757317 -0.207862 0.369854 -0.562914 -0.705741 -0.834101 0.361003 -0.0732749 0.0335398 -0.469283 -0.102206 0.286172 -0.544176 -0.468795 -0.21482 0.882687 -0.887143 -0.447615 0.748466 0.900815 0.369915 -0.258095 0.614978 -0.953124 -0.457686 0.849483 -0.953124 -0.398968 0.990173 -0.805475 -0.112827 -0.370769 0.731254 0.0762658 0.181127 0.168249 0.136814 0.936338 -0.0633259 -0.804682 0.271889 0.588855 -0.315104 -0.803644 0.441939 -0.170873 -0.0957366 -0.856929 -0.490219 -0.266396 -0.629505 -0.306192 -0.455611 0.963805 0.494613 -0.57091 0.363872 0.386517 0.711722 0.934812 0.535813 0.323588 -0.0163884 0.545518 -0.603137 0.742058 -0.523667 0.5609 -0.34489 -0.301004 -0.52324 -0.253578 -0.864254 0.352519 -0.390667 0.932737 -0.765313 -0.148534 -0.583361 -0.475631 0.641713 0.416852 0.365459 -0.26841 -0.105075 -0.0728477 -0.659169 0.337077 -0.669301 0.319742 0.691885 0.810724 -0.0101016 -0.878475 0.889645 -0.41612 0.0439161 0.420881 0.861507 -0.702933 0.302835 0.593249 0.0638752 0.832331 -0.632252 -0.906369 -0.644704 0.942991 -0.009064 -0.372112 0.733024 -0.705374 -0.795648 0.0146794 0.995422 -0.272561 -0.218726 0.0525224 -0.607471 -0.445418 -0.408246 -0.297586 0.327738 -0.292154 0.415571 0.899533 -0.827937 -0.456343 0.774407 -0.693472 0.254982 -0.878475 0.345988 -0.679495 -0.907041 0.767937 0.52324 0.646779 -0.0807215 0.737419 0.679922 -0.249245 0.576464 0.784417 0.706168 0.502243 -0.164892 0.45732 -0.624195 -0.677175 -0.799066 -0.0722983 -0.891598 -0.849788 0.272134 0.167699 0.688284 -0.468978 -0.289651 0.28666 0.502731 -0.844661 0.887814 0.841365 -0.136876 0.145177 0.271645 0.930784 0.969665 0.408856 -0.38963 -0.111301 -0.916746 -0.625172 -0.017365 -0.613269 -0.532151 -0.582934 0.771844 0.759514 0.663503 0.283486 -0.370159 -0.634754 0.654714 0.841365 0.490341 0.794305 -0.504074 -0.54796 -0.303568 0.737297 0.956114 -0.713736 -0.696707 -0.673818 0.745598 -0.106235 -0.380169 -0.239235 -0.112705 -0.660756 0.0502029 0.032197 0.795343 0.217505 0.299661 -0.442793 0.622791 -0.140599 -0.994812 -0.465072 -0.558458 0.0422681 -0.144566 0.838313 -0.183081 0.516587 0.260292 0.254128 -0.660939 -0.338847 0.634632 0.882199 0.674062 0.580615 -0.642384 -0.491928 0.696768 -0.0445875 -0.529954 0.760369 -0.731193 -0.0399487 0.172826 0.865596 -0.777215 0.558397 -0.811823 0.813959 0.116733 0.491684 -0.952513 -0.253029 -0.680105 0.269753 -0.633412 0.380657 0.994079 -0.52092 0.172216 -0.723869 0.530686 -0.280557 0.341838 -0.229163 -0.991516 -0.51793 0.219092 0.381756 -0.767144 0.281899 0.467391 0.494491 -0.0805994 0.355693 0.224769 0.149144 -0.415082 -0.760125 0.621448 -0.262551 0.707938 -0.460982 0.72338 0.421552 -0.279031 -0.801263 -0.035493 -0.911618 -0.602466 0.594653 0.129002 0.651906 -0.803766 -0.249672 0.947508 -0.485031 0.12418 -0.00277718 0.368694 -0.995727 -0.317423 -0.61272 -0.430647 0.590564 -0.54326 0.173193 -0.234779 -0.294412 0.91345 -0.333293 0.885006 -0.0292062 -0.0327464 0.789178 -0.829951 0.647023 -0.120518 -0.375347 -0.237037 -0.879757 -0.94879 0.29136 -0.654042 -0.764641 -0.726249 0.439985 0.89349 -0.711112 0.998047 -0.305216 -0.400189 0.495346 -0.813166 0.348308 0.0458693 -0.261452 0.311014 0.621937 -0.33433 -0.57976 0.0525834 -0.193762 0.576952 0.219581 0.278054 -0.408002 0.837275 -0.425825 0.843013 0.905515 -0.811762 -0.30253 0.791742 0.560106 0.350932 -0.056856 0.513718 -0.963195 0.934141 -0.670522 -0.58037 -0.293863 -0.981445 0.037019 0.699454 0.804071 -0.520432 -0.309122 -0.275185 0.473983 0.110263 -0.759148 -0.340922 0.188208 0.608081 0.251808 0.835994 0.860347 -0.512864 0.416486 -0.528855 0.961608 0.979125 -0.896298 0.267739 0.954039 0.984313 -0.245888 0.479049 -0.648122 0.136387 0.936094 -0.00894192 0.72515 -0.956725 0.87402 0.986389 0.956236 -0.234535 -0.73748 -0.246559 0.0636921 0.595569 -0.822382 0.202185 -0.0951872 0.201392 0.898129 -0.350566 -0.930967 0.194494 0.449873 0.436506 0.275857 0.186865 0.685171 -0.0591754 0.588916 0.398785 -0.290139 0.545335 -0.241188 -0.120273 0.470382 0.126804 -0.991943 -0.595019 0.313334 0.626331 -0.431074 -0.889035 0.330912 -0.735527 -0.711844 -0.0694296 -0.696646 -0.0363475 0.611011 0.892636 0.0514847 -0.460738 0.255959 -0.653615 -0.987487 0.223792 -0.106296 0.175207 0.85052 -0.915159 0.142857 -0.940245 0.914426 -0.0994598 -0.806452 -0.144139 -0.6433 0.0539262 0.373882 -0.852901 -0.275369 0.0102847 -0.0310984 0.0362255 -0.163976 -0.061861 -0.393231 0.237037 -0.246742 -0.96234 0.523972 0.529893 0.667592 0.138646 0.0209662 0.64275 -0.49443 -0.869564 -0.576891 0.620472 -0.929075 -0.213721 -0.143345 0.74517 0.534165 -0.454939 -0.845332 0.0693686 0.0820643 0.812067 0.203894 0.62566 0.540147 -0.65801 0.0452589 -0.626331 -0.219825 0.267129 0.0415967 0.948912 0.72515 -0.668996 0.423505 -0.726188 0.764458 -0.10654 -0.473189 -0.904477 -0.607776 -0.733757 -0.965636 -0.488632 -0.119907 0.94409 -0.466475 0.545152 -0.20188 0.292032 -0.296793 0.837092 0.195532 0.253151 -0.558153 -0.491012 0.254433 0.637623 0.249672 0.26841 -0.771599 -0.443464 -0.822993 0.812799 0.479171 0.562914 -0.348125 -0.402448 -0.577441 0.0619831 -0.50145 -0.970397 0.198401 0.553697 -0.539537 -0.850826 0.874325 0.26957 0.539293 0.862728 -0.00210578 0.766839 -0.537339 0.788324 0.309122 -0.958251 0.594226 0.77813 0.424604 -0.274392 -0.403668 0.177831 0.308206 -0.0758995 -0.839961 -0.112217 -0.661855 0.265114 0.113926 0.286782 0.78515 0.715079 0.223792 0.0821863 -0.487533 0.727592 -0.00320444 0.147801 0.712149 0.286782 -0.198035 -0.586962 0.487472 -0.592517 -0.380902 0.865047 0.0970183 0.65508 -0.27018 0.726493 0.670339 0.247169 -0.338176 0.872127 0.209387 0.299966 -0.299844 -0.454512 -0.312662 -0.218177 0.276894 0.439619 0.0575884 0.735954 -0.447432 -0.797174 0.985412 -0.664846 0.501328 -0.566698 -0.885189 0.332011 -0.187597 -0.775933 0.683279 0.464461 -0.0789514 0.321635 0.29606 -0.617542 0.479965 0.960082 0.673757 -0.344157 0.585376 0.433638 -0.815546 0.426862 0.0693075 0.469955 -0.025483 0.269875 -0.829463 -0.533311 -0.491928 -0.179601 0.89758 0.653981 0.330424 -0.263527 -0.605701 0.244606 0.866085 0.554308 0.62389 0.636158 0.0643635 0.000762963 0.679617 0.725028 0.705618 0.32609 0.0385449 0.39732 0.179418 -0.782159 -0.931394 -0.742546 0.548448 0.85992 -0.898068 0.657826 0.709952 0.698355 0.38731 -0.908811 0.467147 0.476791 -0.766228 0.0101016 -0.676504 -0.896176 -0.341166 0.132908 -0.188025 -0.084933 -0.147984 -0.697989 0.172277 -0.108066 0.768181 -0.0454421 0.187475 -0.599536 -0.838191 -0.730827 0.994507 0.0117496 0.375713 0.0511795 0.67864 0.966857 -0.804926 -0.581957 0.466292 -0.150853 0.0817591 -0.651234 -0.67217 0.0259102 -0.90112 0.158544 -0.196997 0.42204 0.840205 0.962035 0.861446 0.188147 0.675039 0.187048 0.610889 -0.174108 -0.377178 0.202124 0.665944 -0.667348 0.168798 -0.880917 0.988647 0.928648 0.333354 -0.165319 -0.985046 0.927793 0.308206 -0.627674 -0.121128 0.316385 0.971313 0.587512 -0.454268 0.601062 0.593005 -0.701041 -0.33018 0.48851 -0.953673 0.908139 -0.0145573 -0.0399487 -0.166295 -0.430891 -0.953185 -0.69689 -0.757805 -0.0278634 -0.872188 -0.337809 0.940733 0.803156 0.0939665 0.67217 -0.669362 -0.0593585 0.0600909 -0.264626 -0.0367748 0.454695 -0.354595 0.506882 0.335734 -0.531968 -0.361064 -0.851985 -0.621326 0.943663 0.887326 -0.0868862 0.947752 0.460128 0.21775 0.629688 -0.368755 -0.961547 -0.790948 -0.363384 0.187231 0.081576 -0.377544 0.741203 0.921445 0.489608 0.305094 -0.241615 0.319254 0.013947 -0.621326 -0.80517 -0.755303 -0.088229 0.526231 0.639821 0.017243 0.963622 -0.812006 -0.574938 0.681021 -0.0828578 -0.518662 -0.881893 -0.222816 0.419172 -0.345439 0.40849 -0.0666219 -0.501999 0.889157 -0.0480667 -0.4185 -0.340373 -0.738334 -0.265908 -0.882809 -0.340495 -0.320841 0.515976 0.81341 0.0121769 -0.401654 -0.0760826 0.799554 0.302591 -0.656056 0.746941 0.420759 0.359783 0.835994 0.00308237 -0.712455 0.356792 -0.459639 0.338542 -0.669912 -0.100925 -0.545396 0.320353 0.16831 -0.837031 -0.0590533 -0.813044 -0.889035 0.148412 0.219764 0.61803 0.0970794 -0.893735 0.335795 -0.91406 0.889706 0.205359 0.40904 -0.647328 0.837275 -0.501267 0.984008 0.672475 0.513474 -0.745354 0.28843 0.265358 -0.45146 -0.287698 -0.784845 -0.378399 -0.035493 0.326151 -0.160985 0.201697 -0.67333 -0.438643 0.281106 0.0922575 -0.975707 -0.697806 -0.266457 0.18247 -0.00772118 0.936033 0.457137 -0.577929 -0.812738 -0.82403 0.563158 -0.276162 -0.870296 0.684378 0.394024 0.0732139 -0.174902 -0.440962 0.313395 0.407575 -0.623585 0.745842 0.719169 0.827326 0.600757 -0.560961 0.091464 0.701468 -0.0380566 -0.466659 -0.111484 -0.76928 0.132481 -0.812128 0.10239 0.0295724 0.496689 0.567003 0.287759 -0.709647 0.907895 -0.180944 -0.124424 0.0926237 -0.988464 0.355998 0.584277 0.418439 0.448103 -0.504074 0.741508 -0.561876 0.246437 -0.468001 0.328288 -0.372112 0.721732 -0.710807 0.558275 -0.718925 0.189611 -0.76812 0.804804 0.978027 -0.191076 0.184912 0.68804 0.57384 0.866695 0.730277 0.134861 0.269509 -0.184423 -0.657826 -0.776238 0.32664 -0.620411 0.322733 0.627491 0.989746 -0.962889 -0.398968 0.465743 -0.822138 -0.803949 -0.541795 0.380779 -0.491745 0.372845 0.240272 0.647938 0.214515 -0.312052 0.122227 -0.866207 -0.478011 -0.0101627 0.985168 -0.0851772 -0.957701 -0.0790124 -0.530747 0.368084 -0.249489 0.237098 -0.734733 0.547777 -0.893979 0.693472 -0.293924 -0.340983 0.881466 0.809565 0.722526 -0.558275 0.259987 0.825434 -0.775994 -0.722343 -0.23423 0.162084 0.968566 0.831843 0.588183 -0.302286 0.982238 -0.957823 0.863155 -0.82635 0.593005 -0.730461 -0.525498 0.0410474 0.139988 -0.580554 0.937071 -0.938475 -0.579089 0.849971 -0.0763878 0.975036 0.940245 0.876522 -0.999756 -0.454939 0.0209662 0.687613 0.130345 -0.702872 0.841731 -0.517747 -0.489669 -0.740287 0.462813 0.643544 0.300882 -0.977905 -0.0978729 0.758965 0.814508 0.421491 0.325297 -0.698416 0.722648 -0.82934 -0.58916 -0.216285 0.84521 -0.259316 -0.0458693 0.195227 -0.915647 -0.191259 -0.228248 -0.4597 0.0655232 -0.413984 0.969543 0.283792 -0.952818 0.336344 -0.364055 -0.479598 -0.335734 -0.601245 0.0243233 0.67925 0.0642415 0.0269478 0.284951 0.575488 -0.998535 -0.643239 -0.188452 -0.3773 0.451033 0.81634 -0.737236 0.0179144 0.303629 0.288553 -0.677664 -0.288919 -0.293802 0.341594 -0.74041 0.973144 0.608875 -0.162816 -0.646168 -0.626576 0.0814539 -0.769463 0.243995 -0.0194403 0.962462 0.87463 -0.733207 0.597705 -0.59801 0.640309 0.845882 0.84582 0.862178 0.165624 0.993591 0.907285 -0.863155 0.0466628 0.989319 0.741752 -0.0466018 -0.718192 0.295755 -0.41258 -0.280923 -0.71691 -0.224464 0.560167 0.974548 -0.234169 -0.727897 0.162084 -0.883724 0.829951 0.615528 -0.486435 -0.0477615 0.545213 0.116611 -0.87994 0.650746 0.353008 -0.387249 -0.0134587 -0.353008 -0.403424 0.125767 0.892087 0.0696738 -0.506821 -0.803644 0.637257 0.248146 -0.140233 -0.0433058 -0.923276 -0.13419 0.905271 -0.99646 -0.250771 -0.680776 -0.598254 -0.865047 -0.0821863 0.847591 -0.452986 0.0126652 0.83282 0.99353 -0.169164 0.812555 0.0300607 0.959288 0.218177 -0.0740074 0.476547 0.418989 0.960631 -0.224952 0.376385 -0.648549 -0.65038 -0.197668 0.449141 -0.546007 -0.276101 -0.299722 0.494003 -0.298502 -0.957579 -0.0597858 0.0506302 -0.387677 -0.66277 -0.334452 0.971191 0.783563 -0.643056 -0.989746 0.714164 0.258583 0.714591 -0.0943327 0.173864 0.289041 0.85168 0.438398 0.857479 0.053621 0.13126 0.820795 -0.778008 -0.103122 -0.627552 0.0383007 0.984558 -0.350444 -0.861507 -0.765984 -0.783502 -0.40611 -0.908261 0.89465 -0.963012 -0.364544 0.727165 -0.100497 0.715262 -0.754936 -0.202673 -0.504563 -0.00405896 -0.267617 -0.258339 0.259987 -0.539903 -0.586047 0.431562 -0.884823 -0.266823 -0.761223 -0.455428 0.454939 0.353435 -0.567186 0.880428 0.447676 -0.88702 0.725944 0.930174 0.577929 -0.315714 0.723075 0.0125431 -0.511643 0.34373 0.98291 -0.711417 -0.815119 -0.394452 -0.634571 -0.0317698 0.667959 -0.420881 -0.787774 0.0201727 -0.948363 0.860103 -0.0794397 0.698721 -0.765679 -0.229774 0.475204 0.199194 0.181799 -0.242775 0.499069 0.754936 0.886349 -0.233314 0.386761 0.488083 0.0645466 -0.600208 -0.918271 0.326823 0.655568 -0.331584 -0.938658 -0.698477 -0.81756 -0.839778 -0.909543 0.532273 -0.960143 0.427046 0.308023 -0.779595 -0.230567 0.407392 0.207739 0.956297 -0.613819 -0.302347 0.0755943 -0.344035 -0.181677 0.482955 0.447432 -0.560228 0.522813 -0.0596637 0.148106 -0.236122 0.338847 0.928037 -0.524827 0.119053 0.642689 0.771477 -0.909909 -0.391888 -0.134678 -0.0401318 -0.82165 -0.28544 0.43614 -0.434431 0.442122 -0.424726 0.214637 -0.801752 -0.51323 0.0699789 -0.526536 0.306986 0.165563 0.0386059 -0.506088 0.642201 -0.557421 0.941404 -0.161962 0.690909 -0.661428 -0.728263 0.358379 -0.103732 -0.479049 -0.963744 -0.991089 -0.524522 0.100864 -0.386761 -0.48088 -0.35258 -0.799921 -0.697378 -0.00625629 0.0831629 0.849361 -0.119724 0.501022 -0.60857 -0.218238 0.468062 0.711539 0.452132 0.683157 0.0329905 -0.349528 -0.590564 0.461592 0.828547 0.625538 -0.861873 -0.900693 0.0883511 -0.606861 0.994629 -0.350749 0.287881 0.625843 -0.334147 0.937925 -0.715934 0.741997 0.928587 -0.461226 0.646718 0.162511 -0.869442 0.577074 -0.50676 -0.945189 0.208045 -0.0709555 0.141209 -0.371746 -0.950377 -0.621204 0.887814 -0.957701 -0.978576 -0.706046 0.232582 -0.00888089 0.464156 0.384014 -0.147252 -0.974303 -0.0246284 -0.897275 0.645924 -0.32255 -0.709708 0.257912 -0.849483 0.444624 -0.428755 -0.609668 0.65923 0.704642 -0.0787072 0.485153 0.334635 0.614917 -0.0682089 -0.422407 0.642689 0.0639363 -0.921506 -0.184545 0.413984 0.736442 0.77752 0.541795 -0.152623 0.353374 -0.08652 -0.0413526 0.766778 -0.848994 -0.346416 -0.0633259 0.444746 -0.339579 0.35905 0.530137 0.304849 -0.149937 0.406171 0.762993 -0.184606 0.694815 -0.268899 -0.754021 0.887326 0.232398 -0.0911588 -0.811213 -0.911863 -0.828547 -0.419721 -0.631336 0.985107 0.112217 -0.960509 -0.380474 -0.0707114 -0.556749 0.79339 0.401959 -0.405499 -0.0233467 -0.0932951 -0.981384 -0.418561 -0.61626 0.944823 0.0363475 0.401776 0.494064 -0.673757 0.477645 0.152745 0.520188 -0.101535 -0.655568 0.196692 -0.728874 0.54796 0.0365917 0.155919 -0.583911 -0.341105 -0.773614 -0.462935 0.861446 -0.768365 0.754326 0.297159 0.304178 0.473434 0.104953 -0.337443 0.0226753 -0.325419 0.02884 -0.484542 0.969176 -0.817072 0.870785 -0.341472 0.224708 -0.712821 0.167455 -0.728568 -0.119419 -0.175817 -0.922117 -0.129307 -0.592578 -0.6798 0.207373 0.086642 0.575671 0.480941 0.389203 -0.431379 0.988647 -0.159093 0.985717 0.332316 -0.707999 0.385723 -0.728751 0.860164 0.121494 0.959777 -0.540086 -0.731315 -0.149449 -0.728935 0.940123 0.855098 -0.797357 0.307047 0.278359 0.334086 -0.21189 0.97174 0.5562 0.0798059 0.630055 0.759453 0.600146 0.683584 -0.259438 -0.724662 -0.330058 -0.85931 0.810663 0.416425 0.165685 0.978698 0.0754112 0.0248726 -0.0829798 -0.361126 -0.581896 0.827082 0.617176 -0.574267 0.774651 -0.530381 -0.0364086 -0.666433 -0.0989715 -0.533738 0.0686361 0.0657064 0.567553 0.866878 -0.298379 -0.44322 -0.759819 0.461715 0.926267 -0.687551 -0.686392 -0.666372 -0.305826 0.876888 0.956847 -0.429853 0.958861 0.742485 -0.364849 0.94818 -0.129124 -0.98706 -0.62981 -0.595996 -0.381878 0.133518 -0.199561 0.10123 -0.526963 0.998901 -0.894528 0.908078 -0.391034 0.75396 -0.143956 -0.901975 0.249123 -0.402875 -0.14835 -0.914243 -0.290384 0.901486 -0.989929 0.00985748 0.899899 -0.0368358 0.369121 0.976379 0.84228 -0.307413 0.26487 0.775018 0.773919 0.55913 -0.252358 -0.11948 -0.606922 -0.898556 0.299539 -0.448897 0.812677 0.318278 -0.0857875 -0.162145 -0.2172 0.248817 0.603381 -0.683828 -0.253945 0.0588092 -0.609241 0.352886 0.286782 -0.0586261 -0.142125 0.72045 -0.462447 0.148045 0.30192 -0.628224 0.105441 -0.539537 -0.42967 -0.812311 0.0796838 0.416364 0.633106 0.509079 -0.315348 -0.398419 0.956114 0.267129 -0.860836 0.321451 -0.262185 0.52385 0.285867 -0.0369513 -0.928394 -0.765435 -0.447737 -0.637928 -0.90381 -0.953429 0.806574 0.485336 0.197302 0.944456 -0.329907 -0.257423 0.322129 0.555894 -0.149571 -0.760184 0.470057 -0.0691856 -0.945608 -0.713553 0.421429 0.604534 -0.952026 0.468368 -0.233436 0.759514 -0.578235 0.600815 0.299464 0.296487 -0.373395 0.871761 0.835627 0.6292 0.840146 0.490024 0.519333 -0.986816 0.230386 0.149144 -0.318889 0.223304 -0.826716 -0.379681 0.309122 -0.609558 -0.00814842 -0.212866 -0.804925 0.811422 0.776672 0.433516 -0.179846 0.544417 0.850826 0.0987011 0.0401323 -0.399093 0.442305 -0.689089 -0.365217 -0.451094 -0.87463 -0.487655 0.782489 -0.661734 0.594649 0.987919 -0.476241 -0.838679 0.332255 0.11097 -0.725227 0.161108 -0.265305 -0.782643 0.454677 -0.200353 -0.74334 -0.578845 -0.711173 -0.300727 0.137472 -0.315736 -0.150544 -0.231352 -0.726737 0.452075 0.398375 -0.573366 0.794942 -0.830622 0.0918911 -0.263341 0.916013 -0.0149235 -0.887997 -0.737079 -0.387249 0.963744 0.285989 -0.537767 -0.301494 -0.888483 -0.74395 0.42436 0.855215 0.532156 -0.736564 0.770467 -0.815546 0.0232238 -0.392804 0.526311 -0.159403 -0.572253 -0.158421 0.779656 -0.691946 -0.949244 0.775324 0.934628 0.88641 -0.544202 0.331462 -0.622181 -0.0560227 -0.0475268 -0.663625 0.366144 0.504748 -0.91217 -0.705423 0.949646 -0.27189 -0.545885 -0.784723 0.741975 -0.15244 0.125706 -0.447821 0.352143 0.127347 -0.962767 0.318706 -0.71258 0.402081 0.615641 -0.558064 -0.857662 0.760402 0.978818 0.417585 0.884886 0.935972 0.0124945 -0.673391 0.0530104 -0.0321277 0.639758 0.280246 0.674274 -0.307124 0.593188 -0.649037 -0.28049 0.632557 -0.9956 0.0553299 0.905517 -0.162755 -0.878298 0.450226 -0.343486 -0.750237 -0.530414 0.904294 0.0395826 0.150464 0.762425 0.607943 -0.515791 0.247841 0.8833 -0.115818 0.100192 0.975402 -0.755869 0.363079 0.405194 -0.441816 0.834346 0.080904 0.275314 -0.588184 -0.724807 -0.431196 0.930785 -0.564439 -0.809383 -0.00848782 0.768975 -0.237645 -0.793981 -0.600452 0.857927 0.528867 -0.110996 0.15739 0.902349 -0.772966 -0.0558195 -0.390728 -0.504794 -0.799371 0.973938 -0.953238 -0.534144 0.848811 0.118261 -0.961186 0.139988 0.0983645 0.88641 0.187964 -0.679631 -0.290819 -0.508288 -0.625754 0.804621 -0.0261542 -0.996521 0.551622 0.248882 0.373394 0.627249 0.154573 -0.80694 0.754082 0.426923 0.183935 0.0580154 -0.414777 0.800533 -0.971313 -0.0722983 -0.138372 -0.977528 -0.910581 -0.0702779 0.213135 0.164387 -0.735156 0.0255117 -0.215406 0.709343 -0.635586 0.0235319 0.444764 0.163244 0.506434 0.624622 0.897602 0.99588 0.575976 -0.67577 0.227722 0.195421 0.782514 0.961028 -0.472449 0.77734 0.400236 -0.248883 0.991677 0.53294 -0.241107 0.595497 -0.714508 0.363332 0.508704 0.501729 0.537513 -0.514376 -0.737033 -0.107933 -0.368822 -0.224152 -0.317239 0.658454 -0.708261 0.772992 -0.983645 0.73697 -0.335825 -0.715448 0.217368 0.0365295 -0.282632 -0.712883 -0.338263 -0.474121 -0.736153 0.196039 -0.456174 0.287519 -0.976155 0.908171 -0.9858 0.379634 -0.659323 -0.110632 -0.884151 0.255206 -0.896609 0.703336 -0.42861 0.633101 -0.56151 -0.873954 0.529334 -0.43524 -0.259506 -0.634162 -0.73211 0.5503 0.551009 -0.450138 0.940943 0.489617 -0.989375 -0.163589 -0.520435 -0.693205 -0.810106 -0.497604 -0.348308 0.0430297 -0.926504 0.249004 0.30789 -0.779476 0.707684 0.0690185 0.0295062 0.319294 -1.00162 -0.928913 -0.963743 0.204101 -0.138971 -0.6409 0.612208 -0.85199 -0.933229 0.549106 -0.062773 0.534636 0.643722 -0.974886 -0.474319 0.850396 0.121763 0.339988 -0.743699 -0.205924 -0.65453 -0.922325 0.0817592 -0.56603 0.341698 -0.55917 -0.527907 0.109559 0.875149 0.922505 -0.319844 -0.0911863 -0.849656 0.355337 0.818993 -0.377239 0.330255 0.636843 -0.065279 -0.142983 0.405722 -0.506272 0.0138484 0.228547 -0.158337 0.517874 0.060445 -0.655604 0.858432 -0.139008 0.290142 -0.459925 0.580499 0.865523 -0.497339 0.976226 -0.146886 -0.0605649 0.654669 -0.87604 0.153929 0.0280134 -0.178564 0.267259 0.257239 0.894969 0.392131 0.970056 -0.87252 0.686367 -0.176372 0.239738 0.667483 -0.0654525 0.797149 0.223456 0.855647 0.395319 -0.0526509 0.274353 0.844711 0.026552 0.223432 0.151354 0.565354 0.376285 -0.104736 -0.784578 0.423824 -0.224707 0.32646 -0.612765 -0.34068 0.532713 -0.492115 0.722665 0.857771 -0.406584 -0.458296 -0.611379 -0.702382 0.79387 0.917477 0.859936 0.587549 0.165482 -0.0976324 0.171183 -0.790234 0.583998 -0.0937237 -0.0205082 -0.479161 -0.987084 0.991873 0.307615 -0.227753 0.667726 0.553198 0.768346 0.710327 -0.506486 -0.772075 -0.91097 -0.678006 -0.845453 -0.880129 0.659099 -0.703668 -0.0654327 0.363454 -0.915091 0.73641 -0.190664 -0.833197 0.394099 0.713264 -0.957881 -0.744921 0.813254 -0.759627 0.578053 -0.0406167 0.88519 0.136829 -0.424507 0.850579 -0.264626 -0.510255 0.381871 0.0820032 0.325941 -0.849486 0.256989 0.462829 -0.518601 -0.107671 0.167899 0.326051 -0.468385 -0.264186 -0.0721413 -0.714149 -0.67131 0.136111 0.147444 -0.167549 -0.462975 -0.587319 -0.011932 -0.904554 -0.0843063 0.0996084 -0.575766 -0.549929 -0.532089 -0.25566 -0.976318 0.366997 -0.756624 -0.176903 -0.29035 0.395981 0.624368 0.019802 -0.243782 -0.58268 0.878233 0.89938 -0.620397 0.136796 0.835786 0.127013 0.198528 0.990424 0.443065 -0.983819 -0.222047 -0.513839 -0.931273 0.85004 0.985785 -0.0262794 0.330103 -0.260338 -0.255536 -0.969959 0.269941 -0.749001 -0.764666 0.419771 0.69416 -0.314429 0.406003 0.739492 0.473412 -0.606726 0.265044 -0.190751 0.662386 0.738091 0.208899 0.860099 0.157866 0.269679 -0.169014 0.554242 -0.171163 -0.333172 0.243941 0.0137648 -0.172041 -0.976458 0.579907 0.753468 -0.0351166 0.942791 -0.282172 0.665161 -0.104455 -0.691097 0.642678 0.192007 -0.996039 0.804043 -0.209021 -0.35728 0.751865 -0.836752 0.602405 -0.351479 -0.720763 0.581521 -0.379997 0.108483 -0.883837 -0.261424 0.613691 -0.69205 -0.0604227 -0.747094 0.643583 0.631253 0.726492 -0.310067 -0.123065 0.611139 -0.210547 -0.707065 -0.923432 -0.365661 -0.991055 0.440548 0.241806 -0.782912 0.164662 -0.281408 0.745459 0.96582 0.36444 -0.973638 0.14956 -0.732728 0.199562 0.412545 0.134453 0.814945 -0.556113 -0.0180165 0.802124 0.91506 0.291727 -0.305472 -0.361676 -0.166901 0.697931 0.5071 0.548319 -0.962591 -0.154635 -0.809164 -0.87517 0.525907 0.335787 0.952543 -0.403541 -0.722479 -0.769771 -0.222948 -0.286688 -0.122697 0.341374 0.520299 0.865918 -0.687201 0.0217978 -0.951302 -0.176671 -0.763664 0.866956 0.177339 -0.769407 -0.652463 -0.532648 -0.204052 -0.544668 -0.551527 0.811655 0.874074 0.830829 -0.17151 -0.778509 -0.154394 0.736186 -0.758518 0.688725 0.966428 0.836004 0.526838 0.304627 -0.844443 0.70886 0.858172 -0.274422 0.945379 -0.70639 0.769628 0.363073 0.103634 0.33656 0.923922 -0.781694 -0.629612 -0.696263 0.891615 -0.891365 -0.922601 -0.117422 0.616808 0.108092 0.0261145 -0.483023 -0.89765 0.0634991 -0.71789 0.332724 -0.996577 0.891485 0.425238 0.632274 -0.604076 0.5712 0.821209 -0.721338 -0.297928 -0.375597 -0.528685 0.457218 0.853713 -0.088589 0.0070117 0.894274 0.767093 0.382663 0.40525 -0.983136 0.141172 -0.077315 -0.0541923 0.267715 -0.210172 -0.213791 -0.98761 -0.0400692 -0.715557 -0.371304 0.336239 -0.0856925 0.331242 -0.12094 -0.922815 0.242722 0.639712 0.248569 0.56251 0.575351 -0.485588 -0.759623 -0.974357 0.0354572 -0.814796 0.420087 0.0175282 0.277274 0.918044 0.319895 -0.0519396 0.864702 0.0394542 -0.32077 -0.407625 -0.473877 0.724367 -0.974382 0.705789 0.0866403 -0.886686 0.168383 0.660165 -0.980078 -0.931937 0.626028 0.47932 -0.522294 -0.674473 0.651697 0.986833 -0.713269 0.710561 -0.199469 0.388741 0.205339 -0.351473 0.702122 0.139561 0.767216 0.896572 -0.987512 0.440485 -0.030177 -0.266654 -0.799269 0.0258287 0.129855 0.496657 -0.88989 -0.237305 0.3764 -0.358593 -0.957279 0.709326 0.778824 0.367124 0.175289 0.0231746 0.71585 0.832446 0.144625 -0.49321 -0.332993 -0.967805 0.620203 0.135181 -0.247921 0.455237 0.64502 -0.707781 0.310952 -0.476927 0.558827 0.190964 -0.0563945 0.833434 0.385946 0.0605472 0.116007 -0.509331 -0.620558 0.684798 -0.120746 0.230367 0.65537 -0.244488 -0.137849 0.696776 -0.37223 0.882734 0.885406 0.850945 0.140954 0.348823 -0.463389 -0.491249 -0.927471 0.655191 -0.00903022 0.122795 -0.816562 -0.858119 0.362623 0.878671 -0.921493 -0.723622 -0.952936 -0.842742 0.192225 -0.658116 -0.910345 -0.580862 -0.756179 -0.26816 0.196762 0.55836 0.479363 -0.103259 0.510909 -0.168825 0.150783 0.0609233 -0.511358 -0.603525 -0.867913 0.554086 0.276855 0.507636 0.574211 0.152499 0.80221 -0.520209 0.298982 0.170587 -0.0625797 0.428502 0.789861 -0.368729 0.043619 0.869545 0.634798 0.298422 0.207946 -0.718556 0.144154 -0.943888 -0.498706 0.613331 -0.950772 0.0256163 0.525003 0.86177 0.97134 0.380842 0.583571 0.771474 0.672706 -0.0301428 0.829434 -0.306711 0.634117 0.653422 0.650497 -0.32396 -0.912809 -0.303902 -0.385293 0.912302 -0.0661937 0.946332 0.268417 0.442688 0.793513 0.22114 0.197844 -0.594469 -0.364472 0.560684 0.532932 0.697264 -0.0381713 -0.147276 -0.724758 0.189347 -0.605258 0.453054 0.796251 -0.389216 -0.633458 -0.729179 -0.287469 0.0430416 0.823872 -0.0346177 0.560793 0.184264 -0.338199 -0.168693 -0.451966 0.383634 0.838403 0.764277 -0.366749 0.6603 0.814838 -0.852585 -0.651053 -0.569928 -0.722973 -0.0226868 0.579561 -0.581229 -0.133902 -0.0936608 -0.30982 -0.469829 0.754596 0.725706 -0.688646 0.861657 0.897388 -0.0757534 0.972424 -0.145623 0.723732 -0.238193 0.0852894 0.736561 -0.787536 -0.490717 -0.5559 0.235132 -0.112508 0.425491 0.614432 0.622826 -0.0971679 -0.024614 -0.488737 0.305753 0.749715 0.85739 -0.504822 -0.288778 0.501079 -0.488422 0.263174 -0.0833932 0.480324 -0.556836 -0.120555 -0.226685 -0.0173322 0.222709 0.257231 0.731293 0.051589 -0.539376 -0.618078 -0.553549 -0.0062732 0.473718 0.585896 -0.882301 -0.459615 -0.904373 0.227467 -0.239286 0.325189 0.399291 0.0943472 0.291 -0.26141 0.574631 -0.291153 0.810786 0.635845 0.828995 -0.964885 -0.319821 0.0480773 0.671315 0.807869 -0.0914249 0.440699 -0.730874 0.757622 -0.409271 0.529782 0.348703 -0.86798 0.696375 -0.684882 -0.744636 -0.223838 -0.956346 0.282081 -0.272187 0.0728681 -0.255902 -0.587992 0.922411 0.0780772 0.962323 0.0327941 0.283039 0.200661 0.26911 0.124936 0.820447 -0.362376 0.483263 0.998219 0.284515 0.977803 -0.849056 -0.870915 0.977781 -0.771187 0.671786 -0.0254136 -0.500706 0.622023 -0.797918 -0.424376 -0.747157 -0.558801 -0.653268 0.707928 -0.882678 0.290793 0.657397 -0.446207 0.869266 -0.00787765 -0.79438 -0.530764 0.983113 0.514772 -0.0512312 -0.128564 -0.756679 -0.761408 -0.712162 0.934576 -0.0257183 -0.184051 -0.30445 -0.0306611 0.0747579 -0.0118498 -0.496133 0.258137 -0.197982 -0.331578 -0.0222266 0.186196 0.640062 -0.459748 0.600871 -0.555347 -0.147833 -0.378643 0.833938 0.21185 0.377377 -0.0563623 -0.774805 -0.0461876 -0.556831 0.759037 0.0272567 -0.151018 0.705826 0.581793 0.368136 -0.474123 -0.762208 -0.673295 0.0432715 -0.0540373 0.10166 0.92125 0.960466 -0.695448 -0.0346454 0.653237 0.355499 -0.342052 0.40027 -0.420678 0.771643 -0.802253 0.348038 -0.669178 0.933125 -0.0979767 0.382717 -0.406859 0.530086 -0.558668 0.304918 -0.394131 0.993306 -0.908246 0.596512 -0.031798 -0.682212 0.495488 -0.609676 0.0691737 -0.986724 -0.882631 -0.591327 -0.532543 -0.799686 -0.889613 0.502944 0.537822 -0.0178346 -0.431648 0.345171 0.653421 -0.900845 0.717005 0.814127 -0.740881 -0.073703 0.200736 0.656022 0.164022 -0.0568367 -0.0351739 -0.0207115 0.291087 -0.35279 -0.303501 -0.873586 -0.736582 -0.961718 -0.35413 -0.445847 -0.832538 -0.272681 0.586664 -0.839653 0.641301 -0.300224 -0.243828 -0.264384 0.840728 0.823785 0.532327 -0.910339 -0.591507 0.139314 0.830038 -0.71277 -0.179918 -0.900592 -0.242656 -0.242215 0.446548 -0.394476 -0.391732 0.691613 0.602667 -0.898196 0.816955 -0.677556 -0.0962734 -0.260873 0.81932 0.670192 0.303943 -0.359837 0.538899 -0.665578 0.99842 -0.740069 -0.684918 -0.170458 -0.372713 -0.873598 0.242161 0.0704444 0.0519585 -0.22606 0.419943 -0.392954 -0.0228236 0.0597811 0.276242 -0.92362 0.789434 0.965193 0.529248 0.499198 0.898067 0.786744 0.681299 -0.984844 0.873029 0.967107 -0.0604905 -0.513091 -0.264765 0.500122 0.188144 0.720405 0.677697 -0.0175807 0.00964208 0.705416 -0.455903 -0.504935 -0.547551 -0.476162 0.357917 -0.829729 0.447625 -0.560055 -0.740716 0.713082 0.52268 0.80808 -0.899655 0.78552 0.926675 -0.731505 0.105806 0.436954 0.562677 0.860339 0.719615 -0.458612 0.983232 0.565959 0.263534 0.366603 -0.144208 0.920232 -0.626102 -0.714456 0.0621 0.151466 -0.21502 0.808588 -0.0271502 0.498406 -0.343533 0.832379 -0.108027 0.238194 -0.230483 -0.7358 0.324897 -0.0430058 0.874206 -0.865413 -0.91287 0.661652 -0.297399 0.106526 0.829983 0.324547 -0.429433 -0.374466 -0.0093566 0.287417 -0.736166 -0.374287 0.898564 0.348429 0.346459 -0.0936353 -0.213187 -0.264746 0.126848 0.300034 0.702608 0.872049 0.847214 0.592241 -0.144907 -0.701488 0.124462 0.273012 0.583193 0.342273 -0.87758 -0.596079 -0.654449 0.171492 -0.262426 0.158344 0.86311 -0.343078 -0.901038 0.686092 -0.92803 0.8337 0.684643 0.973751 -0.263928 0.231095 0.396792 -0.118453 -0.438853 0.852326 0.887017 -0.534694 -0.448912 -0.66888 0.393174 -0.473549 -0.545074 -0.292485 -0.413489 0.584641 -0.74726 0.607931 0.458922 0.296448 0.109044 -0.925383 0.81437 -0.731032 -0.852998 -0.0301491 0.545203 -0.50704 0.38214 0.212296 -0.987697 -0.590518 -0.145552 0.611287 -0.0710351 0.572755 -0.197594 0.709977 0.947479 0.140801 -0.470179 -0.651433 0.308447 0.0955636 -0.0837745 0.382552 -0.0832011 -0.644357 -0.655328 0.184234 -0.95676 -0.17221 -0.168363 0.505837 0.107208 0.430631 -0.777364 -0.848433 0.705003 0.14393 0.155104 0.230659 -0.694401 0.246747 -0.187235 0.336779 0.874369 0.647549 -0.988315 0.318382 -0.22501 0.479057 0.714254 -0.75539 0.183705 0.0460794 0.465028 0.0307397 -0.544282 0.0513334 0.93299 -0.645263 0.603337 -0.689634 -0.948474 -0.615342 -0.645877 0.934564 -0.320671 -0.082992 -0.0444114 0.0383035 0.695848 0.518572 -0.80089 -0.879172 -0.784791 -0.927267 0.752749 0.0787236 -0.233559 0.504995 -0.620742 0.935519 0.226813 0.129259 -0.828661 0.432667 0.445671 -0.811241 -0.891908 0.463729 -0.811842 -0.841664 0.420972 -0.606229 0.347865 0.419934 0.83483 0.401142 0.164686 -0.202994 0.219045 -0.113178 0.335727 0.50959 0.860145 -0.0189146 0.741262 -0.700186 0.606694 0.170374 0.641554 -0.0750069 0.333705 0.273473 0.251258 -0.0467213 -0.0328736 -0.360161 -0.767961 0.199567 0.357037 0.694415 0.292878 -0.499323 -0.649204 0.0206611 0.374051 0.179611 -0.581742 0.76428 -0.581603 -0.901032 0.994535 -0.270278 -0.493677 -0.540355 -0.94111 -0.931247 0.117936 0.304961 -0.913299 -0.482408 0.362743 -0.990041 -0.219902 -0.417332 0.0461571 -0.57393 0.852586 -0.672678 0.293271 -0.770256 -0.790695 -0.837766 -0.480358 -0.932104 -0.18608 0.455549 -0.163517 -0.961007 0.525907 0.241282 -0.790592 -0.997152 -0.679584 0.901212 0.681306 0.419741 -0.905616 0.948882 0.147417 0.190068 0.386815 0.0478711 -0.352784 0.0442932 -0.585155 0.24493 -0.077239 0.115193 -0.341887 0.50816 -0.905652 0.222358 0.290197 0.554138 -0.805847 -0.62222 -0.231755 -0.736817 -0.476834 -0.853995 0.128877 -0.59593 0.401282 -0.525994 -0.174408 0.0477 0.405616 0.280237 0.841673 0.50722 0.702909 -0.131296 0.258734 0.988171 -0.683213 -0.903311 -0.485481 -0.00119244 -0.726492 0.399337 -0.223498 -0.499492 -0.749177 0.986029 0.692823 -0.0611857 0.724077 0.733343 0.757118 0.344989 0.25855 0.504219 0.799148 -0.891106 0.878477 -0.75755 0.689428 -0.858174 -0.721545 -0.282866 0.744851 0.937611 0.69074 -0.932005 0.0155702 0.885797 0.230008 0.0562048 0.892297 0.836128 0.518509 -0.540077 0.179194 -0.104409 0.374854 -0.901629 0.192689 0.66714 0.55898 0.284343 -0.115453 0.888149 0.955874 0.874561 -0.387987 0.533579 -0.37294 -0.0629435 -0.358881 -0.540734 -0.0295405 -0.761546 -0.207998 -0.256685 0.110854 0.333705 0.551945 -0.405609 -0.674349 0.638038 0.935474 -0.912156 -0.841081 -0.735425 -0.620371 0.648906 0.192708 -0.0153977 -0.950238 0.388518 0.209222 -0.0322995 -0.186458 -0.574295 0.577852 -0.09233 0.257511 -0.832293 0.692122 -0.0570735 -0.0152004 -0.407698 -0.794445 -0.841059 -0.457472 0.731952 0.0117184 -0.99269 0.301608 0.285724 -0.404021 0.347149 -0.38569 -0.57492 -0.224089 0.645469 -0.538204 0.00358426 0.426368 0.845732 0.106997 -0.932251 0.247152 0.559971 0.766371 -0.237309 0.144468 -0.980005 0.968317 0.807191 -0.850152 0.474434 0.595968 -0.56028 -0.210861 -0.40391 0.133823 0.0482688 0.502296 -0.736474 -0.713282 -0.570758 0.109085 0.519617 -0.570013 0.781261 -0.00918654 -0.796282 0.0866364 -0.482364 0.936867 0.721814 0.760949 -0.997497 0.356367 -0.400725 0.521051 -0.955787 0.747904 -0.590871 0.528171 -0.433038 -0.837806 -0.439119 -0.106113 0.21838 0.553695 0.49925 0.231101 0.131465 0.759171 0.0714085 -0.954547 0.831149 -0.0351698 0.297806 -0.549203 0.42751 0.489922 -0.60663 0.440935 0.0734737 -0.425231 0.453114 -0.997184 0.782991 -0.797759 -0.505137 0.456758 -0.283506 -0.46057 0.144421 0.307247 -0.118788 -0.0364707 0.012639 -0.123013 0.455294 0.430233 -0.393264 -0.89636 -0.26979 -0.987992 -0.773485 0.734657 -0.413254 0.361866 0.623963 -0.663051 -0.0416648 -0.975138 0.423929 -0.680108 -0.160149 0.314674 0.705349 -0.667915 -0.662989 0.565677 -0.576965 -0.532074 -0.447691 -0.272031 0.134189 0.221099 0.474766 -0.193732 -0.490789 0.0836598 -0.000321048 0.396925 0.480644 0.548036 -0.0939958 0.565348 -0.673043 -0.952687 0.123075 0.535172 0.281635 -0.724896 -0.753755 0.40631 0.351911 -0.968982 0.307102 -0.865741 -0.0634208 0.892091 -0.141585 -0.728399 -0.567786 0.00791346 -0.402475 0.589766 -0.0060216 0.748466 0.412012 0.0889427 0.519501 -0.340835 -0.0158225 -0.506513 0.50862 0.951441 0.0451161 -0.196409 -0.211278 0.223548 0.165211 -0.202886 -0.166312 0.0382725 0.548153 0.544057 0.0864137 -0.521198 0.336673 0.141326 0.427534 -0.759541 -0.107324 -0.772795 0.287713 0.144989 0.26876 -0.546578 0.224619 0.947113 -0.941615 -0.828499 0.247288 -0.739651 0.904502 0.812704 0.872023 -0.760921 -0.165561 0.0819272 0.837931 0.088708 0.756868 -0.485418 -0.333277 0.943818 0.335582 0.344866 -0.727499 0.161441 -0.0325279 -0.553435 0.273664 0.689295 -0.685313 -0.613843 -0.346238 -0.52901 -0.74982 -0.250888 -0.910764 0.402879 0.070683 0.548049 0.85757 -0.876029 0.513937 -0.457339 0.567376 0.918127 -0.700825 -0.0400217 -0.484119 0.0401468 0.277387 -0.878645 -0.00163574 -0.12841 -0.543098 -0.214154 0.40347 0.0398931 0.680869 -0.715619 -0.595695 -0.0206196 0.279408 -0.251693 -0.0202807 -0.846092 -0.427991 0.920718 0.759367 -0.693303 -0.541484 0.748019 -0.779568 -0.942664 -0.0879176 0.887016 0.419372 0.0214677 0.719133 0.964923 -0.331983 -1.00306 0.367283 0.101567 0.843008 -0.701242 -0.934547 0.00749178 0.799846 -0.262937 -0.777182 -0.135612 -0.491652 0.459153 -0.777285 -0.616252 0.524869 -0.0971646 -0.456573 0.499 -0.859074 0.394675 -0.481677 -0.633717 -0.951957 0.434398 -0.507251 0.176242 -0.958355 -0.775475 0.747806 -0.302748 -0.0161109 -0.503907 0.000943649 0.038882 0.0226176 0.237768 0.614505 -0.921588 0.561834 -0.599296 -0.35762 -0.447354 0.134151 0.0248315 0.959112 0.50895 -0.669536 0.0044684 0.802196 0.0599416 -0.0883525 0.93465 0.849901 -0.945314 0.877186 0.17563 0.979791 0.722826 0.88154 -0.331299 0.344744 -0.150246 -0.098794 -0.435611 -0.50609 0.529396 -0.799312 0.236284 -0.161294 0.205478 0.649089 0.72669 -0.668265 0.695359 0.61565 -0.838436 0.582319 0.254524 -0.688029 -0.655379 0.310039 -0.71196 0.643337 0.811301 0.401165 -0.43644 0.00609917 0.771084 -0.600932 -0.0375638 0.185087 -0.881901 0.729175 0.128991 -0.265257 0.870667 0.440032 -0.738324 -0.200381 -0.535115 0.873376 -0.361097 0.76829 1.00598 0.95325 -0.212995 0.131402 0.879816 -0.496252 0.910869 0.135707 -0.702064 0.32427 -0.157505 0.804504 0.43805 -0.612004 -0.371659 0.622131 0.276007 -0.907299 -0.626779 -0.996498 -0.121581 -0.513865 0.358944 0.582185 0.595001 -0.235316 -0.0232047 -0.894396 0.607892 0.0840584 0.690242 -0.527563 -0.974237 0.502024 -0.727992 -0.377279 0.800996 -0.567272 -0.19256 0.362143 0.84659 0.38784 -0.465515 -0.559478 0.792704 -0.620351 -0.851493 -0.315113 0.316895 -0.285942 